tree
version=v2
num_class=1
num_tree_per_iteration=1
label_index=0
max_feature_idx=59
objective=regression
feature_names=age alreadypaycount amount availablecredits borrowamount borrowtype carloan creditlevel failedcount gender graduatedyear graduation hascar hashouse hasothdebt houseloan interest loanid loantype marriage months notpaytotalamount office officedomain officescale officetype overduecount overduetotalamount position realname repayabilityinfo repaysource repaytype salary status successcount title totalcount university workyears description_0 description_1 description_2 description_3 description_4 description_5 description_6 description_7 description_8 description_9 description_10 description_11 description_12 description_13 description_14 description_15 description_16 description_17 hometown_0 hometown_1
feature_infos=[20:65] [0:9] [1000:312500] [0:539500] [0:539500] [0:8] [0:1] [0:4] [0:1] [0:1] [-1:2015] [0:4] [0:1] [0:1] none [0:1] [8:13] [2000017:2170344] [0:1] [0:1] [3:48] [0:260850.88] [0:6149] [0:20] [0:5] [0:11] [0:35] [0:258026.79999999999] [0:277] [0:711] none none none [0:10] [0:3] [1:15] [0:227] [1:15] none [0:7] [0:399] [0:424] [0:263] [0:142] [0:102] [0:59] [0:34] [0:19] [0:14] [0:10] [0:5] [0:3] [0:3] [0:2] [0:2] [0:2] [0:1] [0:3] [0:48] [0:455]
tree_sizes=340 351 351 423 349 425 349 424 348 424 350 353 425 497 491 418 491 488 421 493 419 493 418 419 420 419 418 491 419 420 419 492 567 569 717 641 645 720 719 863 641 865 788 865 936 863 867 939 1016 942 1088 1020 1089 1166 1099 1172 1025 1171 1092 1096 1097 1099 1092 1154 1166 1096 1030 1333 1331 1330 1330 1332 1405 1324 1101 1314 1167 1312 1309 1475 1166 1189 1163 1380 1340 1405 1189 1236 1086 1332 1106 1034 1308 1034 1268 1113 1036 1237 1109 1191 1190 1029 1030 1243 1035 1381 1248 1045 1033 1039 889 1038 890 1098 1048 892 958 960 1120 1040 1411 1126 1042 817 1278 1080 822 1427 1197 1205 1033 892 1115 1107

Tree=0
num_leaves=3
num_cat=0
split_feature=26 26
split_gain=4.88884e+06 21326.4
threshold=1.0000000180025095e-35 17.500000000000004
decision_type=2 2
left_child=-1 -2
right_child=1 -3
leaf_value=175.72923124131873 166.57534838489227 168.46098320728495
leaf_count=7225 136 87
internal_value=0 -145.213
internal_count=7448 223
shrinkage=1


Tree=1
num_leaves=3
num_cat=0
split_feature=26 26
split_gain=4.35868e+06 19079.5
threshold=1.0000000180025095e-35 19.500000000000004
decision_type=2 2
left_child=-1 -2
right_child=1 -3
leaf_value=0.24188141551316142 -8.3327016674075818 -6.5006481530248372
leaf_count=7225 147 76
internal_value=0 -137.117
internal_count=7448 223
shrinkage=0.0566408


Tree=2
num_leaves=3
num_cat=0
split_feature=26 26
split_gain=3.88592e+06 17130.6
threshold=1.0000000180025095e-35 17.500000000000004
decision_type=2 2
left_child=-1 -2
right_child=1 -3
leaf_value=0.22818451814498231 -7.9344455318518294 -6.2493284775460189
leaf_count=7225 136 87
internal_value=0 -129.471
internal_count=7448 223
shrinkage=0.0566408


Tree=3
num_leaves=4
num_cat=0
split_feature=8 26 40
split_gain=3.46477e+06 17514 135.369
threshold=1.0000000180025095e-35 14.500000000000002 348.50000000000006
decision_type=2 2 2
left_child=2 -2 -1
right_child=1 -3 -4
leaf_value=0.21525532406678657 -7.6361041042480498 -6.0330293033223299 0.073613535672678698
leaf_count=7200 118 104 26
internal_value=0 -122.539 3.79191
internal_count=7448 222 7226
shrinkage=0.0566408


Tree=4
num_leaves=3
num_cat=0
split_feature=26 26
split_gain=3.08974e+06 14369
threshold=1.0000000180025095e-35 19.500000000000004
decision_type=2 2
left_child=-1 -2
right_child=1 -3
leaf_value=0.20310182838826193 -7.0224411802473963 -5.4616572415482461
leaf_count=7225 147 76
internal_value=0 -115.455
internal_count=7448 223
shrinkage=0.0566408


Tree=5
num_leaves=4
num_cat=0
split_feature=8 26 40
split_gain=2.75496e+06 14855.6 88.8457
threshold=1.0000000180025095e-35 14.500000000000002 348.50000000000006
decision_type=2 2 2
left_child=2 -2 -1
right_child=1 -3 -4
leaf_value=0.19156524118658241 -6.8184503158516776 -5.3697726684302651 0.073676533607781369
leaf_count=7200 118 104 26
internal_value=0 -109.274 3.37516
internal_count=7448 222 7226
shrinkage=0.0566408


Tree=6
num_leaves=3
num_cat=0
split_feature=26 26
split_gain=2.45663e+06 12302.5
threshold=1.0000000180025095e-35 21.500000000000004
decision_type=2 2
left_child=-1 -2
right_child=1 -3
leaf_value=0.18077630500306024 -6.213166999396285 -4.736031313891548
leaf_count=7225 159 64
internal_value=0 -102.954
internal_count=7448 223
shrinkage=0.0566408


Tree=7
num_leaves=4
num_cat=0
split_feature=8 26 40
split_gain=2.1905e+06 12881.8 55.9579
threshold=1.0000000180025095e-35 14.500000000000002 348.50000000000006
decision_type=2 2 2
left_child=2 -2 -1
right_child=1 -3 -4
leaf_value=0.17048085317552147 -6.0915464021758927 -4.7755960952395711 0.073224905213642472
leaf_count=7200 118 104 26
internal_value=0 -97.4444 3.00422
internal_count=7448 222 7226
shrinkage=0.0566408


Tree=8
num_leaves=3
num_cat=0
split_feature=26 26
split_gain=1.95319e+06 10478.4
threshold=1.0000000180025095e-35 14.500000000000002
decision_type=2 2
left_child=-1 -2
right_child=1 -3
leaf_value=0.160904899085686 -5.725387137202147 -4.5097570182319151
leaf_count=7225 119 104
internal_value=0 -91.806
internal_count=7448 223
shrinkage=0.0566408


Tree=9
num_leaves=4
num_cat=0
split_feature=8 21 40
split_gain=1.74189e+06 10690.4 32.4624
threshold=1.0000000180025095e-35 41943.835000000006 348.50000000000006
decision_type=2 2 2
left_child=2 -2 -1
right_child=1 -3 -4
leaf_value=0.15171565955044675 -5.4377231436081761 -4.2526856117438507 0.07281552202536444
leaf_count=7200 118 104 26
internal_value=0 -86.8999 2.67409
internal_count=7448 222 7226
shrinkage=0.0566408


Tree=10
num_leaves=3
num_cat=0
split_feature=8 26
split_gain=1.55306e+06 10716.8
threshold=1.0000000180025095e-35 20.500000000000004
decision_type=2 2
left_child=-1 -2
right_child=1 -3
leaf_value=0.14288728592063199 -4.9937597140758081 -3.7531608637247347
leaf_count=7226 154 68
internal_value=0 -82.057
internal_count=7448 222
shrinkage=0.0566408


Tree=11
num_leaves=3
num_cat=0
split_feature=26 26
split_gain=1.38495e+06 9580.25
threshold=1.0000000180025095e-35 13.500000000000002
decision_type=2 2
left_child=-1 -2
right_child=1 -3
leaf_value=0.13512653167468894 -4.9055933574317097 -3.8243549590364232
leaf_count=7225 107 116
internal_value=0 -77.3131
internal_count=7448 223
shrinkage=0.0566408


Tree=12
num_leaves=4
num_cat=0
split_feature=26 21 20
split_gain=1.23484e+06 9257.73 251.996
threshold=1.0000000180025095e-35 41943.835000000006 22.000000000000004
decision_type=2 2 2
left_child=-1 -2 -3
right_child=1 2 -4
leaf_value=0.12747479820235455 -4.5881989080709502 -4.0881291029721147 -3.1164325938335882
leaf_count=7225 119 39 65
internal_value=0 -73.0052 -62.6002
internal_count=7448 223 104
shrinkage=0.0566408


Tree=13
num_leaves=5
num_cat=0
split_feature=8 20 21 40
split_gain=1.10235e+06 9324.4 377.825 9.34058
threshold=1.0000000180025095e-35 22.000000000000004 41943.835000000006 348.50000000000006
decision_type=2 2 2 2
left_child=3 -2 -3 -1
right_child=1 2 -4 -5
leaf_value=0.12016315642218996 -4.3834634106755512 -3.8464180917992907 -2.9447255293759715 0.067360279262175929
leaf_count=7200 113 44 65 26
internal_value=0 -69.1392 -59.4399 2.11866
internal_count=7448 222 109 7226
shrinkage=0.0566408


Tree=14
num_leaves=5
num_cat=0
split_feature=8 21 26 17
split_gain=983695 8328.02 37.335 15.9686
threshold=1.0000000180025095e-35 41943.835000000006 22.500000000000004 2126588.5000000005
decision_type=2 2 2 2
left_child=3 -2 -3 -1
right_child=1 2 -4 -5
leaf_value=0.068872014088017797 -4.1207344675116406 -3.4608514707538114 -2.6219963969848585 0.11346295822134259
leaf_count=46 118 60 44 7180
internal_value=0 -65.3148 -55.755 1.99871
internal_count=7448 222 104 7226
shrinkage=0.0566408


Tree=15
num_leaves=4
num_cat=0
split_feature=26 20 27
split_gain=877800 7594.95 205.528
threshold=1.0000000180025095e-35 22.000000000000004 86380.430000000008
decision_type=2 2 2
left_child=-1 -2 -3
right_child=1 2 -4
leaf_value=0.10705298076966203 -3.9035390630365052 -3.2110639328921042 -2.3713246835094837
leaf_count=7225 114 75 34
internal_value=0 -61.56 -52.8451
internal_count=7448 223 109
shrinkage=0.0566408


Tree=16
num_leaves=5
num_cat=0
split_feature=8 26 21 17
split_gain=783409 7432.9 719.603 8.92239
threshold=1.0000000180025095e-35 13.500000000000002 73138.030000000013 2126588.5000000005
decision_type=2 2 2 2
left_child=3 -2 -3 -1
right_child=1 2 -4 -5
leaf_value=0.064037192459867678 -3.7368726570185742 -3.124067058798123 -2.3484604281796266 0.10097592880017617
leaf_count=46 106 69 47 7180
internal_value=0 -58.2921 -50.3473 1.77909
internal_count=7448 222 116 7226
shrinkage=0.0566408


Tree=17
num_leaves=5
num_cat=0
split_feature=8 21 26 17
split_gain=699042 6848.56 159.551 7.5041
threshold=1.0000000180025095e-35 41943.835000000006 15.500000000000002 2126588.5000000005
decision_type=2 2 2 2
left_child=3 -2 -3 -1
right_child=1 2 -4 -5
leaf_value=0.060548187451665 -3.4895290918727064 -3.0349479400164481 -2.31161784230641 0.095258020105642216
leaf_count=46 118 41 63 7180
internal_value=0 -55.0661 -46.6965 1.67838
internal_count=7448 222 104 7226
shrinkage=0.0566408


Tree=18
num_leaves=4
num_cat=0
split_feature=26 20 21
split_gain=623944 6248.26 182.109
threshold=1.0000000180025095e-35 22.000000000000004 41943.835000000006
decision_type=2 2 2
left_child=-1 -2 -3
right_child=1 2 -4
leaf_value=0.089904171916451697 -3.3068173787084945 -2.8650874635312205 -2.1928672561801061
leaf_count=7225 114 44 65
internal_value=0 -51.9069 -44.2726
internal_count=7448 223 109
shrinkage=0.0566408


Tree=19
num_leaves=5
num_cat=0
split_feature=8 20 21 17
split_gain=556820 5847.6 214.482 3.24392
threshold=1.0000000180025095e-35 22.000000000000004 109447.02000000002 2126588.5000000005
decision_type=2 2 2 2
left_child=3 -2 -3 -1
right_child=1 2 -4 -5
leaf_value=0.056374130518500494 -3.1381419406332922 -2.5072423969746436 -1.7681252154921632 0.084772948647090188
leaf_count=46 113 84 25 7180
internal_value=0 -49.1502 -41.8488 1.49395
internal_count=7448 222 109 7226
shrinkage=0.0566408


Tree=20
num_leaves=4
num_cat=0
split_feature=26 21 26
split_gain=496886 5402.54 124.369
threshold=1.0000000180025095e-35 41943.835000000006 15.500000000000002
decision_type=2 2 2
left_child=-1 -2 -3
right_child=1 2 -4
leaf_value=0.080022831862905264 -2.944181186556782 -2.5402728439011426 -1.9319767617918284
leaf_count=7225 119 41 63
internal_value=0 -46.325 -39.0567
internal_count=7448 223 104
shrinkage=0.0566408


Tree=21
num_leaves=5
num_cat=0
split_feature=8 20 21 17
split_gain=443459 5143.83 1016.11 0.431394
threshold=1.0000000180025095e-35 16.500000000000004 73138.030000000013 2126588.5000000005
decision_type=2 2 2 2
left_child=3 -2 -3 -1
right_child=1 2 -4 -5
leaf_value=0.052524642760733119 -2.8674589109201603 -2.3607931173186216 -1.7335374037028419 0.075441155159284123
leaf_count=46 96 79 47 7180
internal_value=0 -43.8661 -38.0562 1.3298
internal_count=7448 222 126 7226
shrinkage=0.0566408


Tree=22
num_leaves=4
num_cat=0
split_feature=26 21 26
split_gain=395748 4615.8 144.16
threshold=1.0000000180025095e-35 41440.375000000007 22.500000000000004
decision_type=2 2 2
left_child=-1 -2 -3
right_child=1 2 -4
leaf_value=0.071227534560705394 -2.639806607179227 -2.1652136199894878 -1.6252982419411128
leaf_count=7225 117 62 44
internal_value=0 -41.3458 -34.8361
internal_count=7448 223 106
shrinkage=0.0566408


Tree=23
num_leaves=4
num_cat=0
split_feature=8 26 27
split_gain=353202 4522.79 469.193
threshold=1.0000000180025095e-35 13.500000000000002 86380.430000000008
decision_type=2 2 2
left_child=-1 -2 -3
right_child=1 2 -4
leaf_value=0.067044871518170429 -2.538631406783304 -2.0479945239355306 -1.4948319333878575
leaf_count=7226 106 77 39
internal_value=0 -39.1515 -33.3459
internal_count=7448 222 116
shrinkage=0.0566408


Tree=24
num_leaves=4
num_cat=0
split_feature=26 20 26
split_gain=315157 4010.4 482.301
threshold=1.0000000180025095e-35 22.000000000000004 21.500000000000004
decision_type=2 2 2
left_child=-1 -2 -3
right_child=1 2 -4
leaf_value=0.063397651124485283 -2.3714386008504658 -2.0143099017190327 -1.4990294893191511
leaf_count=7225 114 49 60
internal_value=0 -36.8994 -31.0863
internal_count=7448 223 109
shrinkage=0.0566408


Tree=25
num_leaves=4
num_cat=0
split_feature=8 21 21
split_gain=281323 4020.35 327.991
threshold=1.0000000180025095e-35 37159.180000000008 112881.15000000001
decision_type=2 2 2
left_child=-1 -2 -3
right_child=1 2 -4
leaf_value=0.05967744853637038 -2.2710668443802842 -1.7794176994581263 -1.2455400671242409
leaf_count=7226 108 86 28
internal_value=0 -34.9441 -29.4963
internal_count=7448 222 114
shrinkage=0.0566408


Tree=26
num_leaves=4
num_cat=0
split_feature=8 20 21
split_gain=251004 3872.39 604.169
threshold=1.0000000180025095e-35 16.500000000000004 73138.030000000013
decision_type=2 2 2
left_child=-1 -2 -3
right_child=1 2 -4
leaf_value=0.05629812105529855 -2.1864135071078628 -1.7548814713055207 -1.2818300020264526
leaf_count=7226 96 79 47
internal_value=0 -33.0087 -28.2462
internal_count=7448 222 126
shrinkage=0.0566408


Tree=27
num_leaves=5
num_cat=0
split_feature=26 26 27 20
split_gain=224015 3381.49 1294.81 406.122
threshold=1.0000000180025095e-35 9.5000000000000018 86380.430000000008 22.000000000000004
decision_type=2 2 2 2
left_child=-1 -2 3 -3
right_child=1 2 -4 -5
leaf_value=0.05324036956296125 -2.1869431768784793 -1.9356478364194716 -1.1861569175652131 -1.4607610374192141
leaf_count=7225 61 54 44 64
internal_value=0 -31.1133 -27.883 -30.1007
internal_count=7448 223 162 118
shrinkage=0.0566408


Tree=28
num_leaves=4
num_cat=0
split_feature=8 26 37
split_gain=200144 3291.45 1212.96
threshold=1.0000000180025095e-35 9.5000000000000018 1.5000000000000002
decision_type=2 2 2
left_child=-1 -2 -3
right_child=1 2 -4
leaf_value=0.050112893541469396 -2.0877339703643107 -1.2189804787411145 -1.6677311643986672
leaf_count=7226 60 69 93
internal_value=0 -29.4782 -26.3557
internal_count=7448 222 162
shrinkage=0.0566408


Tree=29
num_leaves=4
num_cat=0
split_feature=26 21 20
split_gain=178630 2992.79 649.725
threshold=1.0000000180025095e-35 29669.960000000003 22.000000000000004
decision_type=2 2 2
left_child=-1 -2 -3
right_child=1 2 -4
leaf_value=0.047387835246751088 -1.8771545484517436 -1.5753482680722111 -1.1700114772242463
leaf_count=7225 86 58 79
internal_value=0 -27.7861 -24.0226
internal_count=7448 223 137
shrinkage=0.0566408


Tree=30
num_leaves=4
num_cat=0
split_feature=8 21 20
split_gain=159477 2850.72 1182.34
threshold=1.0000000180025095e-35 19340.180000000004 22.000000000000004
decision_type=2 2 2
left_child=-1 -2 -3
right_child=1 2 -4
leaf_value=0.044606851821852478 -1.9034630624524749 -1.5440718574978871 -1.1319456973536008
leaf_count=7226 54 78 90
internal_value=0 -26.3157 -23.6281
internal_count=7448 222 168
shrinkage=0.0566408


Tree=31
num_leaves=5
num_cat=0
split_feature=8 26 27 20
split_gain=142346 2685.24 1117.93 430.061
threshold=1.0000000180025095e-35 9.5000000000000018 86380.430000000008 22.000000000000004
decision_type=2 2 2 2
left_child=-1 -2 3 -3
right_child=1 2 -4 -5
leaf_value=0.042080920776082331 -1.7787757712415977 -1.5594169761047565 -0.9144862709503595 -1.1549607501162991
leaf_count=7226 60 54 44 64
internal_value=0 -24.8632 -22.1089 -24.0404
internal_count=7448 222 162 118
shrinkage=0.0566408


Tree=32
num_leaves=6
num_cat=0
split_feature=26 21 37 26 40
split_gain=127169 2346.31 528.177 252.997 0.898721
threshold=1.0000000180025095e-35 41440.375000000007 1.5000000000000002 21.500000000000004 348.50000000000006
decision_type=2 2 2 2 2
left_child=4 -2 3 -3 -1
right_child=1 2 -4 -5 -6
leaf_value=0.039692342791191701 -1.5263795854178654 -1.11813500958865 -1.280578544060829 -0.71615766793099778 0.061543783065509519
leaf_count=7200 117 22 47 37 25
internal_value=0 -23.4478 -19.1797 -15.8275 0.702596
internal_count=7448 223 106 59 7225
shrinkage=0.0566408


Tree=33
num_leaves=6
num_cat=0
split_feature=7 26 1 27 35
split_gain=119841 2575.18 857.543 77.3378 36.7247
threshold=1.0000000180025095e-35 9.5000000000000018 1.0000000180025095e-35 55698.840000000004 2.5000000000000004
decision_type=2 2 2 2 2
left_child=4 -2 3 -3 -1
right_child=1 2 -4 -5 -6
leaf_value=0.037520853505379821 -1.62632605943641 -1.0989582927772901 -1.2862407464524765 -0.78673535644005577 -0.027737494883097531
leaf_count=7195 62 32 86 48 25
internal_value=0 -22.5378 -19.9356 -16.4965 0.658109
internal_count=7448 228 166 80 7220
shrinkage=0.0566408


Tree=34
num_leaves=8
num_cat=0
split_feature=7 21 23 26 21 22 40
split_gain=107032 2362.01 1304.53 1048.51 221.509 33.0916 0.492424
threshold=1.0000000180025095e-35 18204.760000000006 16.500000000000004 10.500000000000002 73138.030000000013 6101.5000000000009 348.50000000000006
decision_type=2 2 2 2 2 2 2
left_child=5 -2 3 -3 -5 6 -1
right_child=1 2 -4 4 -6 -7 -8
leaf_value=0.035335756479449483 -1.6069892045424241 -1.3041088270447005 -1.4518924338562871 -0.95967023843580734 -0.67662669896115846 -0.019683937321031967 0.055949964265662455
leaf_count=7166 47 34 35 69 43 32 22
internal_value=0 -21.3004 -19.1914 -17.3399 -15.26 0.620823 0.625437
internal_count=7448 228 181 146 112 7220 7188
shrinkage=0.0566408


Tree=35
num_leaves=7
num_cat=0
split_feature=7 21 23 26 26 35
split_gain=95703.4 2104.64 1170.59 972.232 55.1241 32.7113
threshold=1.0000000180025095e-35 18204.760000000006 16.500000000000004 20.500000000000004 10.500000000000002 2.5000000000000004
decision_type=2 2 2 2 2 2
left_child=5 -2 3 4 -3 -1
right_child=1 2 -4 -5 -6 -7
leaf_value=0.033405421504846752 -1.5193628862710686 -1.2339978939476035 -1.373722886429217 -0.67699416472395091 -0.91323055668372377 -0.028109526305802723
leaf_count=7195 47 34 35 52 60 25
internal_value=0 -20.143 -18.1496 -16.3952 -18.5629 0.585677
internal_count=7448 228 181 146 94 7220
shrinkage=0.0566408


Tree=36
num_leaves=7
num_cat=0
split_feature=7 26 27 20 22 40
split_gain=85577.3 1909.71 704.68 638.363 29.3754 0.702158
threshold=1.0000000180025095e-35 9.5000000000000018 86380.430000000008 22.000000000000004 6101.5000000000009 348.50000000000006
decision_type=2 2 2 2 2 2
left_child=4 -2 3 -3 5 -1
right_child=1 2 -4 -5 -6 -7
leaf_value=0.031453884463891871 -1.3792090144439242 -1.2087544926427274 -0.67552616130371357 -0.84919798858791529 -0.020316275775844037 0.051568219811843778
leaf_count=7166 62 58 41 67 32 22
internal_value=0 -19.0489 -16.817 -18.2145 0.552493 0.556855
internal_count=7448 228 166 125 7220 7188
shrinkage=0.0566408


Tree=37
num_leaves=8
num_cat=0
split_feature=7 21 23 26 26 35 40
split_gain=76435.8 1797.55 1085.07 792.582 59.6269 29.1459 0.0915823
threshold=1.0000000180025095e-35 18204.760000000006 16.500000000000004 20.500000000000004 9.5000000000000018 2.5000000000000004 348.50000000000006
decision_type=2 2 2 2 2 2 2
left_child=5 -2 3 4 -3 6 -1
right_child=1 2 -4 -5 -6 -7 -8
leaf_value=0.029667522228960623 -1.3669758836929093 -1.1489461564505765 -1.2416407068408271 -0.59731225929889542 -0.83174509044857514 -0.028261723805172872 0.047771379811186329
leaf_count=7175 47 24 35 52 70 25 20
internal_value=0 -18.0037 -16.1788 -14.5386 -16.4889 0.521215 0.525101
internal_count=7448 228 181 146 94 7220 7195
shrinkage=0.0566408


Tree=38
num_leaves=8
num_cat=0
split_feature=7 21 23 26 26 35 40
split_gain=68354.6 1600.64 972.39 717.762 141.973 26.125 0.0468676
threshold=1.0000000180025095e-35 18204.760000000006 16.500000000000004 22.500000000000004 10.500000000000002 2.5000000000000004 348.50000000000006
decision_type=2 2 2 2 2 2 2
left_child=5 -2 3 4 -3 6 -1
right_child=1 2 -4 -5 -6 -7 -8
leaf_value=0.027987558425456395 -1.2924370929519675 -1.0414297984527383 -1.1747910640114656 -0.52610337712844191 -0.75664173479163843 -0.026769631444406767 0.045291361330166792
leaf_count=7175 47 34 35 41 71 25 20
internal_value=0 -17.0266 -15.3019 -13.7481 -15.2869 0.491706 0.495391
internal_count=7448 228 181 146 105 7220 7195
shrinkage=0.0566408


Tree=39
num_leaves=10
num_cat=0
split_feature=7 21 23 20 4 21 0 22 40
split_gain=61121.7 1425.75 871.863 653.138 321.709 384.544 176.341 25.8677 0.622268
threshold=1.0000000180025095e-35 18204.760000000006 16.500000000000004 12.500000000000002 15825.000000000002 87273.195000000022 34.500000000000007 6101.5000000000009 348.50000000000006
decision_type=2 2 2 2 2 2 2 2 2
left_child=7 6 3 -3 -5 -6 -2 8 -1
right_child=1 2 -4 4 5 -7 -8 -9 -10
leaf_value=0.026427554992508245 -1.420258198793434 -0.90839731266562851 -1.111540596718104 -0.34509965683396143 -0.7991379626422207 -0.44906482033136441 -0.90159682498944949 -0.022128590734245949 0.044706680375104245
leaf_count=7166 25 57 35 20 41 28 22 32 22
internal_value=0 -16.1017 -14.4715 -12.9992 -10.7534 -11.8911 -21.5739 0.463867 0.467985
internal_count=7448 228 181 146 89 69 47 7220 7188
shrinkage=0.0566408


Tree=40
num_leaves=7
num_cat=0
split_feature=7 26 4 27 23 35
split_gain=54737.8 1315.29 966.417 1220.59 504.229 23.2814
threshold=1.0000000180025095e-35 9.5000000000000018 14450.000000000002 86380.430000000008 6.5000000000000009 2.5000000000000004
decision_type=2 2 2 2 2 2
left_child=5 -2 -3 4 -4 -1
right_child=1 2 3 -5 -6 -7
leaf_value=0.024984229463621555 -1.1107147764001974 -0.44910516549411028 -0.61757420960329823 -0.52619870387182066 -1.049250112577705 -0.026726237235763853
leaf_count=7195 62 35 23 40 68 25
internal_value=0 -15.239 -13.4022 -14.7241 -16.8668 0.437605
internal_count=7448 228 166 131 91 7220
shrinkage=0.0566408


Tree=41
num_leaves=10
num_cat=0
split_feature=7 21 23 26 0 21 4 22 40
split_gain=48918.8 1253.8 749.478 585.418 290.704 195.475 289.445 22.9784 0.73123
threshold=1.0000000180025095e-35 17699.000000000004 16.500000000000004 10.500000000000002 34.500000000000007 73138.030000000013 14450.000000000002 6101.5000000000009 348.50000000000006
decision_type=2 2 2 2 2 2 2 2 2
left_child=7 4 3 -3 -2 6 -5 8 -1
right_child=1 2 -4 5 -6 -7 -8 -9 -10
leaf_value=0.023525281257705085 -1.3229019890744127 -0.88306522895087436 -1.0012162622909937 -0.40421759752712144 -0.80291545932594643 -0.42723233892778195 -0.73758543676625876 -0.022195028183588216 0.041306980470280981
leaf_count=7166 23 36 35 22 22 43 47 32 22
internal_value=0 -14.4071 -12.9344 -11.6014 -19.6268 -10.0766 -11.3992 0.412806 0.416703
internal_count=7448 228 183 148 45 112 69 7220 7188
shrinkage=0.0566408


Tree=42
num_leaves=9
num_cat=0
split_feature=7 21 23 26 0 26 4 40
split_gain=43824.3 1134.08 659.671 555.863 293.826 128.581 204.238 21.3944
threshold=1.0000000180025095e-35 17619.180000000004 16.500000000000004 22.500000000000004 34.500000000000007 9.5000000000000018 14450.000000000002 348.50000000000006
decision_type=2 2 2 2 2 2 2 2
left_child=7 4 3 5 -2 -3 -7 -1
right_child=1 2 -4 -5 -6 6 -8 -9
leaf_value=0.022241553417112075 -1.269388829475609 -0.87907929661648554 -0.94731103251420745 -0.40671229446723373 -0.76091404374906679 -0.38348199795526872 -0.68176741250157202 -0.029274243508918094
leaf_count=7197 22 26 35 41 22 20 62 23
internal_value=0 -13.6376 -12.255 -11.0054 -18.6687 -12.3002 -10.9457 0.389436
internal_count=7448 228 184 149 44 108 82 7220
shrinkage=0.0566408


Tree=43
num_leaves=10
num_cat=0
split_feature=7 21 23 26 0 26 4 22 40
split_gain=39263.1 1027.97 597.802 487.416 229.11 126.771 168.969 20.4111 1.48325
threshold=1.0000000180025095e-35 17699.000000000004 16.500000000000004 22.500000000000004 34.500000000000007 9.5000000000000018 14450.000000000002 6101.5000000000009 348.50000000000006
decision_type=2 2 2 2 2 2 2 2 2
left_child=7 4 3 5 -2 -3 -7 8 -1
right_child=1 2 -4 -5 -6 6 -8 -9 -10
leaf_value=0.020933670842899679 -1.188185074982786 -0.83254644044874793 -0.89630802777911434 -0.38465538025655688 -0.72110976776440983 -0.36357380069169359 -0.64120707707335545 -0.022111240745709672 0.040677536534649741
leaf_count=7166 23 26 35 41 22 20 61 32 22
internal_value=0 -12.9096 -11.5779 -10.3832 -17.6311 -11.6087 -10.2968 0.367364 0.371051
internal_count=7448 228 183 148 45 107 81 7220 7188
shrinkage=0.0566408


Tree=44
num_leaves=11
num_cat=0
split_feature=7 27 2 10 10 21 2 26 35 40
split_gain=35176.8 961.409 422.73 512.085 395.551 332.395 208.742 142.309 20.286 0.614438
threshold=1.0000000180025095e-35 58586.360000000008 7900.0000000000009 2003.5000000000002 1997.5000000000002 17393.290000000005 24750.000000000004 15.500000000000002 2.5000000000000004 348.50000000000006
decision_type=2 2 2 2 2 2 2 2 2 2
left_child=8 2 -2 4 -4 -5 7 -3 9 -1
right_child=1 6 3 5 -6 -7 -8 -9 -10 -11
leaf_value=0.019748044487231269 -0.49371771406231835 -0.515008396237011 -0.78127564281588213 -1.2528128833152259 -0.39497383688249277 -0.79473848606301301 -0.64272400573709187 -0.26729909106442867 -0.028481354315991442 0.036585720977019821
leaf_count=7175 25 23 43 20 20 38 33 26 25 20
internal_value=0 -12.2205 -13.8802 -14.7893 -11.909 -17.4343 -9.00976 -7.05475 0.346566 0.349859
internal_count=7448 228 146 121 63 58 82 49 7220 7195
shrinkage=0.0566408


Tree=45
num_leaves=10
num_cat=0
split_feature=7 21 23 20 0 4 21 40 35
split_gain=31534.6 873.875 517.889 469.348 339.307 253.995 290.046 20.0198 0.506326
threshold=1.0000000180025095e-35 17063.355000000007 16.500000000000004 12.500000000000002 34.500000000000007 15825.000000000002 98193.640000000014 348.50000000000006 2.5000000000000004
decision_type=2 2 2 2 2 2 2 2 2
left_child=7 4 3 -3 -2 -5 -7 8 -1
right_child=1 2 -4 5 -6 6 -8 -9 -10
leaf_value=0.018629784350724089 -1.1275301537047957 -0.66525190248147137 -0.8125905876615418 -0.2113994432461194 -0.63506995666312294 -0.56603810935012389 -0.276849930179906 -0.031204251081650345 0.033913094596763962
leaf_count=7175 20 60 35 20 21 48 24 23 22
internal_value=0 -11.5718 -10.4124 -9.33736 -16.1558 -7.55308 -8.47515 0.326943 0.330103
internal_count=7448 228 187 152 41 92 72 7220 7197
shrinkage=0.0566408


Tree=46
num_leaves=10
num_cat=0
split_feature=7 26 4 27 17 26 20 35 40
split_gain=28245.4 835.252 573.262 889.291 443.148 201.334 185.905 18.4115 1.23607
threshold=1.0000000180025095e-35 7.5000000000000009 14450.000000000002 86380.430000000008 2066850.5000000002 14.500000000000002 22.000000000000004 2.5000000000000004 348.50000000000006
decision_type=2 2 2 2 2 2 2 2 2
left_child=7 -2 5 4 6 -3 -4 8 -1
right_child=1 2 3 -5 -6 -7 -8 -9 -10
leaf_value=0.017574846286903065 -0.87635684655775492 -0.46503618945982761 -0.95618648837577325 -0.36411399013578288 -0.48150799089047741 -0.19109038498565492 -0.63100850458472391 -0.028355580555658021 0.036306346009480656
leaf_count=7175 40 25 32 41 33 21 36 25 20
internal_value=0 -10.9527 -9.8437 -10.9041 -12.5598 -6.24727 -14.2342 0.30843 0.311583
internal_count=7448 228 188 142 101 46 68 7220 7195
shrinkage=0.0566408


Tree=47
num_leaves=11
num_cat=0
split_feature=7 21 4 21 41 0 25 23 40 35
split_gain=25296.2 772.342 455.205 596.579 420.255 324.178 136.807 93.3656 18.2785 1.08026
threshold=1.0000000180025095e-35 17063.355000000007 11150.000000000002 112881.15000000001 15.500000000000002 34.500000000000007 7.5000000000000009 11.500000000000002 348.50000000000006 2.5000000000000004
decision_type=2 2 2 2 2 2 2 2 2 2
left_child=8 5 -3 4 -4 -2 7 -6 9 -1
right_child=1 2 3 -5 6 -7 -8 -9 -10 -11
leaf_value=0.016579645836587199 -1.0294210682972289 -0.27977693344929527 -0.32241540924883916 -0.29226011289209314 -0.47247277373027213 -0.56749369744844458 -0.84473667947239861 -0.68770900989325101 -0.031029359068101333 0.03362237651833902
leaf_count=7175 20 28 20 28 43 21 26 42 23 22
internal_value=0 -10.366 -9.28919 -9.98092 -10.9148 -14.6373 -11.735 -10.4524 0.290967 0.294001
internal_count=7448 228 187 159 131 41 111 85 7220 7197
shrinkage=0.0566408


Tree=48
num_leaves=12
num_cat=0
split_feature=7 26 4 27 17 4 26 10 22 40 35
split_gain=22683.6 718.434 489.426 741.267 404.104 262.831 174.21 26.7198 17.7024 2.89752 0.96581
threshold=1.0000000180025095e-35 7.5000000000000009 14450.000000000002 86380.430000000008 2066850.5000000002 21900.000000000004 14.500000000000002 2003.5000000000002 6101.5000000000009 348.50000000000006 2.5000000000000004
decision_type=2 2 2 2 2 2 2 2 2 2 2
left_child=8 7 6 4 5 -4 -3 -2 9 10 -1
right_child=1 2 3 -5 -6 -7 -8 -9 -10 -11 -12
leaf_value=0.015581447978101471 -0.58357095495839206 -0.41385376683198427 -0.52562848755910585 -0.32263003710434207 -0.42462912563053457 -0.85408203096759683 -0.16210201009638328 -0.93059747659849268 -0.02449249108592064 0.038609026496315584 0.03186355155333364
leaf_count=7144 20 25 30 41 33 38 21 20 32 22 22
internal_value=0 -9.81718 -8.79648 -9.77166 -11.2808 -12.8516 -5.49622 -13.9855 0.274491 0.277963 0.276334
internal_count=7448 228 188 142 101 68 46 40 7220 7188 7166
shrinkage=0.0566408


Tree=49
num_leaves=11
num_cat=0
split_feature=7 21 23 21 26 40 58 35 40 22
split_gain=20340.2 710.193 374.154 437.31 247.957 210.616 165.24 17.2931 1.57758 0.444656
threshold=1.0000000180025095e-35 13790.410000000002 16.500000000000004 48712.375000000007 15.500000000000002 59.500000000000007 27.500000000000004 2.5000000000000004 348.50000000000006 6101.5000000000009
decision_type=2 2 2 2 2 2 2 2 2 2
left_child=7 -2 3 5 -5 -3 -6 8 9 -1
right_child=1 2 -4 4 6 -7 -8 -9 -10 -11
leaf_value=0.014699126911305049 -0.79610128149179371 -0.34004267584556086 -0.65966288193071443 -0.44928748750255509 -0.11981070177089467 -0.60621040465957876 -0.341054676093899 -0.029815771766710179 0.034028035042045782 0.026327805323542796
leaf_count=7144 31 25 37 32 29 52 22 25 20 31
internal_value=0 -9.29721 -8.41881 -7.54019 -5.65907 -9.37062 -3.97912 0.258971 0.262048 0.260736
internal_count=7448 228 197 160 83 77 51 7220 7195 7175
shrinkage=0.0566408


Tree=50
num_leaves=13
num_cat=0
split_feature=8 20 21 4 4 21 40 21 16 5 35 22
split_gain=17915 812.461 418.83 408.781 357.654 157.567 79.2659 78.6916 63.5288 267.115 1.19576 0.370299
threshold=1.0000000180025095e-35 22.000000000000004 58965.60500000001 21900.000000000004 23950.000000000004 48712.375000000007 348.50000000000006 100177.62000000001 10.900000000000002 2.5000000000000004 2.5000000000000004 6101.5000000000009
decision_type=2 2 2 2 2 2 2 2 2 2 2 2
left_child=6 2 4 5 -2 -3 8 -5 10 -10 11 -1
right_child=1 3 -4 7 -6 -7 -8 -9 9 -11 -12 -13
leaf_value=0.013868329290078618 -0.5483660800589768 -0.33287535022281245 -0.38451088375049736 -0.5434306405332896 -0.86531257404418371 -0.1127067865445853 0.11520881989331985 -0.31699196695480791 0.013139102641853832 -0.18911110616652352 0.03142485343542574 0.024919311032956099
leaf_count=7017 57 24 33 36 30 25 23 21 107 24 20 31
internal_value=0 -8.76567 -10.6311 -6.49556 -11.9021 -4.06663 0.240767 -8.36669 0.234309 -0.447332 0.247275 0.246039
internal_count=7448 226 120 106 87 49 7222 57 7199 131 7068 7048
shrinkage=0.0566408


Tree=51
num_leaves=12
num_cat=0
split_feature=7 21 4 21 41 2 25 36 40 35 22
split_gain=16348.4 638.795 367.923 435.993 371.174 207.186 120.138 34.4671 19.6598 1.31811 0.295759
threshold=1.0000000180025095e-35 13790.410000000002 11150.000000000002 112881.15000000001 15.500000000000002 24750.000000000004 5.5000000000000009 126.50000000000001 348.50000000000006 2.5000000000000004 6101.5000000000009
decision_type=2 2 2 2 2 2 2 2 2 2 2
left_child=8 -2 -3 4 -4 6 7 -6 9 10 -1
right_child=1 2 3 -5 5 -7 -8 -9 -10 -11 -12
leaf_value=0.013117458582484323 -0.72554312338017035 -0.22413059141130134 -0.23808178160039051 -0.2290441935424016 -0.46070742371514328 -0.72947861508074707 -0.58923705188571673 -0.28658994039190044 -0.036441365049258302 0.030199518194490762 0.023586168557789371
leaf_count=7144 31 32 20 28 30 25 36 26 23 22 31
internal_value=0 -8.33649 -7.51393 -8.14372 -8.90645 -9.62061 -8.48585 -6.93773 0.230808 0.233979 0.232711
internal_count=7448 228 197 165 137 117 92 56 7220 7197 7175
shrinkage=0.0566408


Tree=52
num_leaves=13
num_cat=0
split_feature=7 26 4 27 29 4 21 10 36 40 35 22
split_gain=14658.1 593.625 465.119 500.891 428.471 229.703 134.821 84.1624 61.729 17.6455 1.16501 0.2395
threshold=1.0000000180025095e-35 7.5000000000000009 12050.000000000002 58586.360000000008 253.50000000000003 24750.000000000004 118375.11000000002 2003.5000000000002 89.500000000000014 348.50000000000006 2.5000000000000004 6101.5000000000009
decision_type=2 2 2 2 2 2 2 2 2 2 2 2
left_child=9 7 -3 4 -4 -5 -7 -2 -6 10 11 -1
right_child=1 2 3 5 8 6 -8 -9 -10 -11 -12 -13
leaf_value=0.012374665434040286 -0.46683381750486558 -0.19720282583350221 -0.31958561381786527 -0.13990751517013286 -0.75994783113625386 -0.47094509283827674 -0.23080742999613776 -0.7893771925977533 -0.48622052360458651 -0.034528723814015179 0.028619746718184704 0.022324345720534794
leaf_count=7144 20 37 27 22 26 29 21 20 26 23 22 31
internal_value=0 -7.89457 -6.99227 -7.7906 -9.62393 -5.57024 -6.76964 -11.6092 -11.4016 0.217755 0.220768 0.219551
internal_count=7448 228 188 151 79 72 50 40 52 7220 7197 7175
shrinkage=0.0566408


Tree=53
num_leaves=14
num_cat=0
split_feature=8 20 21 4 17 2 40 17 0 21 25 35 22
split_gain=12938.6 705.036 545.305 521.782 256.672 158.989 83.2636 125.394 212.716 80.9719 6.30315 0.853231 0.206257
threshold=1.0000000180025095e-35 12.500000000000002 27948.330000000005 21900.000000000004 2060394.5000000002 12950.000000000002 348.50000000000006 2126588.5000000005 34.500000000000007 61191.730000000003 5.5000000000000009 2.5000000000000004 6101.5000000000009
decision_type=2 2 2 2 2 2 2 2 2 2 2 2 2
left_child=6 2 -2 5 9 -3 7 8 -1 -5 -4 12 -9
right_child=1 3 10 4 -6 -7 -8 11 -10 -11 -12 -13 -14
leaf_value=-0.2114673511731526 -0.71251028693183494 -0.070203839010690244 -0.32337990466750932 -0.64036911307165223 -0.25729504577317747 -0.26895101149904754 0.11544595259492536 0.011611911791498855 0.017663351515787247 -0.3711619865044487 -0.48017296631738665 0.026569159269300143 0.021130028773229257
leaf_count=20 40 26 34 20 27 32 23 7097 30 22 25 21 31
internal_value=0 -7.4516 -9.53249 -5.70562 -7.58001 -3.28695 0.202383 0.195788 -1.35067 -9.22734 -7.12648 0.207162 0.206053
internal_count=7448 226 99 127 69 58 7222 7199 50 42 59 7149 7128
shrinkage=0.0566408


Tree=54
num_leaves=13
num_cat=0
split_feature=7 21 4 21 41 2 25 36 40 17 35 22
split_gain=11823.8 564.024 300.036 337.954 328.143 207.281 115.665 42.1254 18.3371 1.37074 0.748652 0.161506
threshold=1.0000000180025095e-35 13790.410000000002 11150.000000000002 112881.15000000001 15.500000000000002 24750.000000000004 5.5000000000000009 126.50000000000001 348.50000000000006 2126588.5000000005 2.5000000000000004 6101.5000000000009
decision_type=2 2 2 2 2 2 2 2 2 2 2 2
left_child=8 -2 -3 4 -4 6 7 -6 9 -1 11 -11
right_child=1 2 3 -5 5 -7 -8 -9 -10 10 -12 -13
leaf_value=0.022608905516007759 -0.63642675537096316 -0.17931130650702209 -0.18495222399035785 -0.18754447014856712 -0.38998198046331667 -0.63977950717363208 -0.50630532205108691 -0.23012172662785396 -0.036886327359275356 0.010954372938748491 0.025184335928530859 0.019999606453691973
leaf_count=48 31 32 20 28 30 25 36 26 23 7097 21 31
internal_value=0 -7.09187 -6.33498 -6.89905 -7.56812 -8.22926 -7.17648 -5.77085 0.194062 0.197143 0.195468 0.194403
internal_count=7448 228 197 165 137 117 92 56 7220 7197 7149 7128
shrinkage=0.0566408


Tree=55
num_leaves=14
num_cat=0
split_feature=27 20 27 2 27 2 41 40 35 42 58 25 22
split_gain=10368.3 638.227 494.885 476.544 276.588 171.125 122.192 81.0274 76.3279 5.02261 49.822 4.73358 0.0993017
threshold=1.0000000180025095e-35 12.500000000000002 27725.140000000003 11150.000000000002 63834.915000000008 23950.000000000004 200.50000000000003 348.50000000000006 2.5000000000000004 186.50000000000003 36.500000000000007 5.5000000000000009 6101.5000000000009
decision_type=2 2 2 2 2 2 2 2 2 2 2 2 2
left_child=7 2 -2 -3 6 -6 -5 8 9 12 -11 -4 -1
right_child=1 3 11 4 5 -7 -8 -9 -10 10 -12 -13 -14
leaf_value=0.010428968827707146 -0.65702061323863226 -0.069751773046685936 -0.29063658784704632 -0.2790522025898387 -0.085706234439214005 -0.3152996924811669 -0.53138075025013998 0.11269084554312538 -0.087102856408414309 0.009941545039769125 -0.066574196382985062 -0.43298802995799146 0.018929660419267039
leaf_count=6808 39 28 34 20 20 30 29 23 24 309 28 25 31
internal_value=0 -6.68697 -8.67006 -5.04374 -6.06485 -4.08534 -7.83547 0.17932 0.17282 0.179147 0.0529852 -6.41865 0.185121
internal_count=7448 225 98 127 99 50 49 7223 7200 7176 337 59 6839
shrinkage=0.0566408


Tree=56
num_leaves=12
num_cat=0
split_feature=7 21 23 20 59 58 43 40 37 17 22
split_gain=9531.24 511.167 280.263 287.492 437.816 190.127 146.027 19.0609 2.09643 1.12083 0.0854327
threshold=1.0000000180025095e-35 13790.410000000002 16.500000000000004 12.500000000000002 144.50000000000003 27.500000000000004 14.500000000000002 348.50000000000006 2.5000000000000004 2126588.5000000005 6101.5000000000009
decision_type=2 2 2 2 2 2 2 2 2 2 2
left_child=7 -2 3 6 -5 -6 -3 8 9 -1 -11
right_child=1 2 -4 4 5 -7 -8 -9 -10 10 -12
leaf_value=0.020476738244743876 -0.58262014213925428 -0.25284938167194732 -0.47089540392373119 -0.40110730672231015 -0.029694159421272341 -0.22039336303747928 -0.46663385220420339 -0.039108504606338051 0.028999082647915113 0.0097613048209606642 0.01791695408618978
leaf_count=47 31 31 37 26 36 33 34 23 22 7097 31
internal_value=0 -6.36852 -5.65566 -4.94477 -3.67109 -2.21503 -6.63231 0.173029 0.176178 0.174802 0.173262
internal_count=7448 228 197 160 95 69 65 7220 7197 7175 7128
shrinkage=0.0566408


Tree=57
num_leaves=14
num_cat=0
split_feature=7 26 41 27 4 17 4 10 4 40 35 17 22
split_gain=8541.42 461.734 386.838 337.372 380.697 448.561 326.485 127.211 92.4328 17.1101 1.86933 0.981221 0.0561014
threshold=1.0000000180025095e-35 7.5000000000000009 182.50000000000003 58586.360000000008 14450.000000000002 2021985.0000000002 17950.000000000004 2003.5000000000002 29700.000000000004 348.50000000000006 2.5000000000000004 2126588.5000000005 6101.5000000000009
decision_type=2 2 2 2 2 2 2 2 2 2 2 2 2
left_child=9 7 6 4 -4 -6 -3 -2 -5 10 11 -1 -13
right_child=1 2 3 8 5 -7 -8 -9 -10 -11 -12 12 -14
leaf_value=0.019360177639704983 -0.3503869489283517 0.0085607220211421694 -0.22241213006553825 -0.10491085082527293 -0.68552797908949537 -0.30946057863094567 -0.26163155399873089 -0.64928181320652456 -0.28601557132090638 -0.037055872557188958 0.027482107418298783 0.009208558791488115 0.016958426252081774
leaf_count=47 20 21 26 20 27 26 39 20 29 23 22 7097 31
internal_value=0 -6.0293 -5.25461 -6.25728 -7.58679 -9.16393 -2.96916 -9.24597 -3.88823 0.163262 0.166255 0.164938 0.163467
internal_count=7448 228 188 128 79 53 60 40 49 7220 7197 7175 7128
shrinkage=0.0566408


Tree=58
num_leaves=13
num_cat=0
split_feature=7 21 4 21 25 20 2 42 22 35 40 17
split_gain=7666.43 440.24 251.346 260.456 297.82 208.687 49.6697 27.6807 15.5587 2.55704 1.0439 0.874372
threshold=1.0000000180025095e-35 13790.410000000002 11150.000000000002 98193.640000000014 5.5000000000000009 22.000000000000004 16950.000000000004 88.500000000000014 6101.5000000000009 2.5000000000000004 348.50000000000006 2126588.5000000005
decision_type=2 2 2 2 2 2 2 2 2 2 2 2
left_child=8 -2 -3 4 5 -4 -7 -6 9 10 11 -1
right_child=1 2 3 -5 7 6 -8 -9 -10 -11 -12 -13
leaf_value=0.018304500837062501 -0.5288754384340334 -0.12613318076524688 -0.36631924876287553 -0.16556568777385816 -0.355564763740368 -0.084266267245286852 -0.23126864935851557 -0.57004359822164286 -0.029051808736792938 0.028457603025699808 0.023990256241420056 0.0086871125650167646
leaf_count=47 31 32 42 37 24 20 20 22 32 24 20 7097
internal_value=0 -5.71276 -5.0543 -5.56305 -6.26251 -4.86837 -2.94379 -8.43525 0.154048 0.157363 0.155863 0.154788
internal_count=7448 228 197 165 128 82 40 46 7220 7188 7164 7144
shrinkage=0.0566408


Tree=59
num_leaves=13
num_cat=0
split_feature=7 26 41 36 17 1 4 44 22 22 35 17
split_gain=6876.79 401.022 331.49 294.578 399.747 292.045 190.746 176.484 61.6518 13.9408 2.28255 0.743088
threshold=1.0000000180025095e-35 5.5000000000000009 182.50000000000003 131.50000000000003 2021985.0000000002 1.0000000180025095e-35 17950.000000000004 4.5000000000000009 2246.5000000000005 6101.5000000000009 2.5000000000000004 2126588.5000000005
decision_type=2 2 2 2 2 2 2 2 2 2 2 2
left_child=9 -2 6 4 7 -5 -3 -4 -8 10 11 -1
right_child=1 2 3 5 -6 -7 8 -9 -10 -11 -12 -13
leaf_value=0.017306389447556556 -0.53673540722316349 -0.025412299700435154 -0.6130861043652428 -0.057624742164292753 -0.23288832316852953 -0.3315426178914373 -0.13357687980588129 -0.32724639465270472 -0.30774850996894804 -0.027494882844587266 0.026959408547637398 0.0082542352437159072
leaf_count=47 23 24 27 26 39 26 20 23 20 32 24 7117
internal_value=0 -5.4111 -4.86811 -5.74542 -6.89611 -3.58046 -2.80624 -8.81723 -4.10256 0.14536 0.148506 0.147072
internal_count=7448 228 205 141 89 52 64 50 40 7220 7188 7164
shrinkage=0.0566408


Tree=60
num_leaves=13
num_cat=0
split_feature=7 21 23 26 58 4 22 17 40 35 22 17
split_gain=6174.63 381.382 227.355 288.15 179.008 168.895 114.51 86.8321 15.7546 1.25771 0.828933 0.665365
threshold=1.0000000180025095e-35 13790.410000000002 16.500000000000004 7.5000000000000009 10.500000000000002 12050.000000000002 2084.5000000000005 2066850.5000000002 348.50000000000006 2.5000000000000004 6101.5000000000009 2126588.5000000005
decision_type=2 2 2 2 2 2 2 2 2 2 2 2
left_child=8 -2 3 -3 -5 -6 -7 -8 9 10 11 -1
right_child=1 2 -4 4 5 6 7 -9 -10 -11 -12 -13
leaf_value=0.016362702594695952 -0.48094135185745296 -0.4165025641464955 -0.38928437974792629 -0.025449649278492595 -0.050780737943963275 -0.12703010937139769 -0.32690283018188548 -0.15203346303259438 -0.036706482094350443 0.023145560445401909 0.019076333466975397 0.0077277872575350365
leaf_count=47 31 21 37 21 20 28 50 20 23 22 31 7097
internal_value=0 -5.128 -4.51806 -3.89272 -3.27054 -3.74521 -4.28407 -5.00144 0.137145 0.140033 0.13889 0.137729
internal_count=7448 228 197 160 139 118 98 70 7220 7197 7175 7144
shrinkage=0.0566408


Tree=61
num_leaves=13
num_cat=0
split_feature=7 10 27 41 41 16 40 4 40 35 22 17
split_gain=5535.56 343.754 645.931 342.961 368.962 266.205 126.179 187.32 14.1445 1.11692 0.727368 0.577765
threshold=1.0000000180025095e-35 2003.5000000000002 12490.405000000002 381.50000000000006 218.50000000000003 12.500000000000002 140.50000000000003 18850.000000000004 348.50000000000006 2.5000000000000004 6101.5000000000009 2126588.5000000005
decision_type=2 2 2 2 2 2 2 2 2 2 2 2
left_child=8 3 -3 4 5 -2 7 -4 9 10 11 -1
right_child=1 2 6 -5 -6 -7 -8 -9 -10 -11 -12 -13
leaf_value=0.01547047240260071 -0.28249135881102577 -0.62490982240511717 -0.061810062443282091 -0.0075305297628134073 -0.385981215279316 -0.043639867191252638 -0.37613385887947043 -0.28669646193457565 -0.034779920980228675 0.021934790191079093 0.018055781208427206 0.0072901916537575313
leaf_count=47 27 22 22 24 39 35 27 32 23 22 31 7097
internal_value=0 -4.85583 -6.25871 -3.61435 -4.40952 -2.7211 -4.72923 -3.56025 0.129409 0.132155 0.131059 0.129946
internal_count=7448 228 103 125 101 62 81 54 7220 7197 7175 7144
shrinkage=0.0566408


Tree=62
num_leaves=13
num_cat=0
split_feature=27 20 21 2 25 21 3 17 36 40 37 17
split_gain=4908.19 426.074 401.575 350.259 193.642 169.778 230.988 99.7318 13.029 3.05921 0.830167 0.0958137
threshold=6346.5600000000004 12.500000000000002 27948.330000000005 11150.000000000002 7.5000000000000009 55751.850000000013 25050.000000000004 2102426.5000000005 138.50000000000003 348.50000000000006 2.5000000000000004 2126588.5000000005
decision_type=2 2 2 2 2 2 2 2 2 2 2 2
left_child=7 2 -2 -3 5 -5 -7 -1 -4 10 11 -9
right_child=1 3 8 4 -6 6 -8 9 -10 -11 -12 -13
leaf_value=-0.10419671672254999 -0.49824916532817937 0.0036748516555360814 -0.28352325823924834 -0.2730923002554651 -0.39371202133439526 0.038911142447066373 -0.21613499734526653 0.013781980028822647 -0.17248848496203054 0.028721039892959283 0.020229673514473211 0.0069384712115102068
leaf_count=24 39 24 34 36 20 20 22 33 25 22 21 7128
internal_value=0 -4.65686 -6.24293 -3.2972 -4.12228 -3.23549 -1.69681 0.118634 -4.31654 0.125837 0.124325 0.123335
internal_count=7448 220 98 122 98 78 42 7228 59 7204 7182 7161
shrinkage=0.0566408


Tree=63
num_leaves=14
num_cat=0
split_feature=7 26 17 4 27 21 2 40 17 35 40 17 22
split_gain=4458.57 312.836 259.223 328.228 421.377 211.788 286.125 110.784 57.9627 13.4264 1.78455 0.904783 0.684036
threshold=1.0000000180025095e-35 5.5000000000000009 2066850.5000000002 21900.000000000004 86380.430000000008 53270.405000000006 8025.0000000000009 131.50000000000003 2021985.0000000002 2.5000000000000004 348.50000000000006 2126588.5000000005 6101.5000000000009
decision_type=2 2 2 2 2 2 2 2 2 2 2 2 2
left_child=9 -2 3 5 8 6 -3 -4 -5 10 11 -1 -13
right_child=1 2 7 4 -6 -7 -8 -9 -10 -11 -12 12 -14
leaf_value=0.015791651901199761 -0.44854908451789016 -0.052063396611080871 0 -0.54691383832728102 -0.14597720248774118 -0.048754721320329208 -0.3249363175057563 -0.16932695467838974 -0.31404435458075886 -0.032956461398697783 0.024536440244078868 0.0064844761526992641 0.016718628877020001
leaf_count=47 23 20 21 23 25 31 39 26 20 25 20 7097 31
internal_value=0 -4.35873 -3.88555 -4.5052 -6.19986 -3.11033 -4.20563 -1.68037 -8.08114 0.115338 0.118123 0.116919 0.115563
internal_count=7448 228 205 158 68 90 59 47 43 7220 7195 7175 7128
shrinkage=0.0566408


Tree=64
num_leaves=14
num_cat=0
split_feature=27 20 21 3 25 21 3 40 17 4 35 22 17
split_gain=3959.29 374.723 352.051 297.75 178.146 134.928 199.15 95.3265 295.57 17.8442 1.16081 0.588657 0.0402093
threshold=6346.5600000000004 12.500000000000002 27948.330000000005 11150.000000000002 7.5000000000000009 55751.850000000013 25050.000000000004 348.50000000000006 2102426.5000000005 28200.000000000004 2.5000000000000004 6101.5000000000009 2126588.5000000005
decision_type=2 2 2 2 2 2 2 2 2 2 2 2 2
left_child=7 2 -2 -3 5 -5 -7 8 -1 -4 11 12 -10
right_child=1 3 9 4 -6 6 -8 -9 10 -11 -12 -13 -14
leaf_value=-0.18941904600342938 -0.4560398538992031 0.0099376259770504339 -0.16668310474501544 -0.24071724238188957 -0.36051920808767213 0.041995264413053221 -0.19446049566567586 0.11698978549027762 0.012194500839987811 -0.27545687082372239 0.020893011412270835 0.015824209317096244 0.0061172844353258073
leaf_count=23 39 24 35 36 20 20 22 23 33 24 21 31 7097
internal_value=0 -4.18333 -5.66715 -2.91307 -3.67439 -2.83558 -1.46168 0.105768 0.0987764 -3.87172 0.110863 0.109796 0.10877
internal_count=7448 220 98 122 98 78 42 7228 7205 59 7182 7161 7130
shrinkage=0.0566408


Tree=65
num_leaves=13
num_cat=0
split_feature=7 41 26 41 25 28 36 44 41 22 35 17
split_gain=3589.83 301.411 631.491 313.929 302.854 254.173 182.546 213.514 48.7745 12.5842 2.13889 1.73281
threshold=1.0000000180025095e-35 404.50000000000006 5.5000000000000009 182.50000000000003 7.5000000000000009 122.50000000000001 126.50000000000001 1.5000000000000002 26.500000000000004 6101.5000000000009 2.5000000000000004 2126588.5000000005
decision_type=2 2 2 2 2 2 2 2 2 2 2 2
left_child=9 2 -2 5 6 -4 7 -5 -7 10 11 -1
right_child=1 -3 3 4 -6 8 -8 -9 -10 -11 -12 -13
leaf_value=0.017540314868218491 -0.53110688109803916 -0.011538325931390836 0.044502850625688921 -0.37857328405723395 -0.43162455517745862 -0.24672590250947632 -0.095795251866696907 -0.14283926275890488 -0.09707456255382306 -0.028225815571462056 0.023523681062036259 0.005819708351795851
leaf_count=47 21 21 24 28 26 20 38 30 20 32 24 7117
internal_value=0 -3.91185 -4.27555 -3.60602 -4.55151 -1.70404 -3.57812 -4.69927 -3.20417 0.102742 0.105759 0.1044
internal_count=7448 228 207 186 122 64 96 58 40 7220 7188 7164
shrinkage=0.0566408


Tree=66
num_leaves=12
num_cat=0
split_feature=27 26 9 41 26 28 40 5 16 5 4
split_gain=2488.49 399.527 425.605 248.418 217.413 188.716 144.237 108.44 42.3517 159.231 0.31653
threshold=1590.7300000000002 9.5000000000000018 1.0000000180025095e-35 182.50000000000003 20.500000000000004 102.00000000000001 348.50000000000006 5.5000000000000009 10.900000000000002 2.5000000000000004 1.0000000180025095e-35
decision_type=2 2 2 2 2 2 2 2 2 2 2
left_child=6 -2 -3 4 -4 -5 8 -7 10 -10 -1
right_child=1 2 3 5 -6 7 -8 -9 9 -11 -12
leaf_value=0.014825352833910604 -0.31722893641829736 -0.37449794141372539 -0.088778424604834774 -0.28881621648826505 0.13557596077528752 -0.15812110276749777 0.13432603266037668 -0.00041026387203110744 0.0048424432093720467 -0.14453571330806531 0.0055307894646941065
leaf_count=22 57 20 36 25 20 36 26 24 106 27 7049
internal_value=0 -3.31862 -2.44755 -1.76924 -0.0950824 -2.82922 0.0967225 -1.73601 0.0876999 -0.465619 0.098444
internal_count=7448 218 161 141 56 85 7230 60 7204 133 7071
shrinkage=0.0566408


Tree=67
num_leaves=16
num_cat=0
split_feature=27 26 9 41 20 40 41 17 3 40 5 35 22 16 16
split_gain=2229.28 354.731 382.56 223.314 210.73 129.399 124.663 101.968 173.506 80.5377 51.5794 0.819686 0.629857 0.0544539 0.510273
threshold=1590.7300000000002 9.5000000000000018 1.0000000180025095e-35 182.50000000000003 16.500000000000004 348.50000000000006 255.50000000000003 2126588.5000000005 30050.000000000004 125.50000000000001 5.5000000000000009 2.5000000000000004 6101.5000000000009 11.200000000000001 11.580000000000002
decision_type=2 2 2 2 2 2 2 2 2 2 2 2 2 2 2
left_child=5 -2 -3 4 -4 7 9 8 -1 -5 -8 12 13 -9 -15
right_child=1 2 3 6 -6 -7 10 11 -10 -11 -12 -13 -14 14 -16
leaf_value=-0.19583576947821804 -0.29981706719710466 -0.3550561375994859 -0.14137994161535614 -0.11656345505974627 0.077525740871466686 0.12721567528080632 -0.13121364576298886 0.0050712379304640679 0.016988594000571018 -0.29263667679665145 -0.00064136944963864633 0.018058388548508063 0.015511292034094517 0.015842241100962006 0.0045282839178799146
leaf_count=20 57 20 21 22 35 26 20 6984 26 23 20 20 26 30 98
internal_value=0 -3.1413 -2.3192 -1.67537 -0.0867029 0.0912722 -2.68038 0.0827145 -1.37073 -3.81906 -1.25174 0.0926179 0.0916856 0.0907316 0.141983
internal_count=7448 218 161 141 56 7230 85 7204 46 45 40 7158 7138 7112 128
shrinkage=0.0566408


Tree=68
num_leaves=16
num_cat=0
split_feature=27 26 9 59 40 26 40 59 17 2 4 35 22 16 16
split_gain=2000.19 314.122 343.23 167.427 133.298 143.719 116.082 95.8699 91.4197 167.514 4.54356 0.727577 0.554649 0.0455922 0.436997
threshold=1590.7300000000002 9.5000000000000018 1.0000000180025095e-35 177.50000000000003 140.50000000000003 21.500000000000004 348.50000000000006 83.500000000000014 2126588.5000000005 61500.000000000007 17950.000000000004 2.5000000000000004 6101.5000000000009 11.200000000000001 11.580000000000002
decision_type=2 2 2 2 2 2 2 2 2 2 2 2 2 2 2
left_child=6 10 -3 7 5 -5 8 -4 9 -1 -2 12 13 -10 -15
right_child=1 2 3 4 -6 -7 -8 -9 11 -11 -12 -13 -14 14 -16
leaf_value=-0.1897395526979859 -0.21812622800758319 -0.33662364528458288 -0.069400466201109706 -0.053384250060847953 -0.12933165796754892 0.12716358180945392 0.12048168415937388 -0.24074235965100532 0.0047840739448087284 0.01928192633404981 -0.33443371077298251 0.017120900197326993 0.014690223897654809 0.014996271716157463 0.0042764770510591455
leaf_count=20 30 20 22 38 33 20 26 28 6984 26 27 20 26 30 98
internal_value=0 -2.97581 -2.20074 -1.59003 -0.733137 0.165605 0.0861651 -3.03908 0.078048 -1.29806 -5.00277 0.0874361 0.0865398 0.0856237 0.134904
internal_count=7448 218 161 141 91 58 7230 50 7204 46 57 7158 7138 7112 128
shrinkage=0.0566408


Tree=69
num_leaves=16
num_cat=0
split_feature=27 26 9 59 42 26 40 59 17 3 4 35 22 16 16
split_gain=1795.41 280.982 308.45 150.358 119.825 114.991 104.134 85.3814 81.9565 151.47 3.38422 0.645093 0.487605 0.0379005 0.372249
threshold=1590.7300000000002 9.5000000000000018 1.0000000180025095e-35 177.50000000000003 171.00000000000003 20.500000000000004 348.50000000000006 83.500000000000014 2126588.5000000005 30050.000000000004 17950.000000000004 2.5000000000000004 6101.5000000000009 11.200000000000001 11.580000000000002
decision_type=2 2 2 2 2 2 2 2 2 2 2 2 2 2 2
left_child=6 10 -3 7 5 -5 8 -4 9 -1 -2 12 13 -10 -15
right_child=1 2 3 4 -6 -7 -8 -9 11 -11 -12 -13 -14 14 -16
leaf_value=-0.18015938423661657 -0.20647836826200069 -0.31914807709846121 -0.065770046403902618 -0.14327450771160222 0.047592580576332109 0.013671060510231486 0.11410414767149762 -0.22793913143287417 0.004513170701884491 0.018473053729783501 -0.31668789992463775 0.016232080679132975 0.013912617133121591 0.014195476700722659 0.0040386725405707749
leaf_count=20 30 20 22 38 31 22 26 28 6984 26 27 20 26 30 98
internal_value=0 -2.81965 -2.08556 -1.50587 -0.692701 -1.51125 0.0813469 -2.87954 0.0736472 -1.22919 -4.73801 0.0825469 0.081685 0.0808047 0.12821
internal_count=7448 218 161 141 91 60 7230 50 7204 46 57 7158 7138 7112 128
shrinkage=0.0566408


Tree=70
num_leaves=16
num_cat=0
split_feature=27 26 2 21 17 2 40 17 34 33 25 35 22 16 16
split_gain=1611.06 251.479 261.713 101.731 283.783 271.697 93.4153 73.4636 153.887 28.6484 10.8713 0.571264 0.427876 0.0312485 0.315101
threshold=1590.7300000000002 9.5000000000000018 9900.0000000000018 55751.850000000013 2021985.0000000002 23950.000000000004 348.50000000000006 2126588.5000000005 1.5000000000000002 9.5000000000000018 4.5000000000000009 2.5000000000000004 6101.5000000000009 11.200000000000001 11.580000000000002
decision_type=2 2 2 2 2 2 2 2 2 2 2 2 2 2 2
left_child=6 10 -3 4 -4 9 7 8 -1 -5 -2 12 13 -9 -15
right_child=1 2 3 5 -6 -7 -8 11 -10 -11 -12 -13 -14 14 -16
leaf_value=0.026368065839693641 -0.16999690438810944 0.067141944139836263 -0.30549226019429221 0.050114605715935873 -0.056777536894370345 -0.20137983252055847 0.10806420574786116 0.0042576080447003445 -0.17298331437076792 -0.039192234097482549 -0.28729130327072494 0.015389404167090968 0.013176171679506124 0.013437442380992174 0.0038140919342431229
leaf_count=25 20 21 33 22 29 36 26 6984 21 20 37 20 26 30 98
internal_value=0 -2.67123 -1.97574 -2.46999 -3.45112 -1.60973 0.0768014 0.069497 -1.16389 0.100993 -4.48734 0.077934 0.0771045 0.0762584 0.121881
internal_count=7448 218 161 140 62 78 7230 7204 46 42 57 7158 7138 7112 128
shrinkage=0.0566408


Tree=71
num_leaves=16
num_cat=0
split_feature=27 40 41 26 41 10 4 40 23 35 16 35 4 5 22
split_gain=1443.78 247.195 267.731 364.973 274.326 111.621 85.7316 83.7987 60.5741 42.9012 5.8761 46.5297 1.8023 0.616776 0.368986
threshold=1590.7300000000002 375.50000000000006 203.50000000000003 21.500000000000004 389.50000000000006 1997.5000000000002 17950.000000000004 348.50000000000006 11.500000000000002 2.5000000000000004 10.900000000000002 1.5000000000000002 1.0000000180025095e-35 2.5000000000000004 6101.5000000000009
decision_type=2 2 2 2 2 2 2 2 2 2 2 2 2 2 2
left_child=7 2 3 8 5 -4 -7 9 -2 10 12 13 -1 -12 -14
right_child=1 -3 4 -5 -6 6 -8 -9 -10 -11 11 -13 14 -15 -16
leaf_value=0.020767490708681936 -0.15462087546321601 -0.32065615011345738 -0.30809405219533359 0.13667280732701043 -0.016329484468162063 -0.061550465722616819 -0.2267588731756178 0.1023439708758007 -0.028332706654678956 -0.067612355578524186 0.0033006599843156906 -0.081508484193232172 0.0041040269312183821 0.016381739837175526 0.012478708946804676
leaf_count=22 41 22 36 24 27 22 25 26 21 25 86 21 7002 22 26
internal_value=0 -2.52894 -2.12064 -0.751585 -3.14745 -4.03309 -2.76139 0.072515 -2.03479 0.0655851 0.0704881 -0.135525 0.0745117 0.123464 0.0732818
internal_count=7448 218 196 86 110 83 47 7230 62 7204 7179 129 7050 108 7028
shrinkage=0.0566408


Tree=72
num_leaves=17
num_cat=0
split_feature=17 41 4 26 41 4 21 40 40 44 17 4 35 22 16 16
split_gain=1297.21 306.788 380.29 332.105 267.671 209.355 91.9685 75.0015 57.6053 24.4227 11.6503 56.6386 1.14208 0.329533 0.0585611 0.179706
threshold=2075747.5000000002 389.50000000000006 8850.0000000000018 7.5000000000000009 203.50000000000003 17950.000000000004 61191.730000000003 80.500000000000014 350.50000000000006 16.500000000000004 2126588.5000000005 29700.000000000004 2.5000000000000004 6101.5000000000009 11.200000000000001 11.580000000000002
decision_type=2 2 2 2 2 2 2 2 2 2 2 2 2 2 2 2
left_child=1 2 -1 -4 5 -5 9 -7 10 -6 11 -2 13 14 -12 -16
right_child=8 -3 3 4 6 7 -8 -9 -10 -11 12 -13 -14 -15 15 -17
leaf_value=0.053392906925422319 0.097758666725885138 0.044313589567379817 -0.35692719144400847 0.067655987950132543 -0.35013789455828248 -0.041929497505200822 -0.12571985948586054 -0.1939128529290384 -0.08786644929034694 -0.19322632145040108 0.0037743804462049193 -0.022363921968617563 0.017761835760809287 0.011818165505817477 0.012031383045850406 0.0036686335592491259
leaf_count=22 21 25 31 23 20 21 26 27 20 20 6989 25 21 26 30 101
internal_value=0 -2.41437 -2.84652 -3.35665 -2.60518 -1.17982 -4.0428 -2.35073 0.0679811 -5.04253 0.0730764 0.569747 0.0695283 0.0685143 0.0677314 0.112714
internal_count=7448 215 190 168 137 71 66 48 7233 40 7213 46 7167 7146 7120 131
shrinkage=0.0566408


Tree=73
num_leaves=16
num_cat=0
split_feature=17 41 4 26 41 4 21 40 40 17 4 35 22 16 40
split_gain=1164.37 275.821 342.038 296.066 240.74 188.206 82.4203 69.4833 51.7713 10.3991 50.9625 1.01915 0.287285 0.0508504 0.150583
threshold=2075747.5000000002 389.50000000000006 8850.0000000000018 7.5000000000000009 203.50000000000003 17950.000000000004 61191.730000000003 118.50000000000001 350.50000000000006 2126588.5000000005 29700.000000000004 2.5000000000000004 6101.5000000000009 11.200000000000001 223.50000000000003
decision_type=2 2 2 2 2 2 2 2 2 2 2 2 2 2 2
left_child=1 2 -1 -4 5 -5 -6 -7 9 10 -2 12 13 -11 -15
right_child=8 -3 3 4 6 7 -8 -9 -10 11 -12 -13 -14 14 -16
leaf_value=0.050599864357087028 0.092663346134411018 0.041974038243415571 -0.33783216351847534 0.064105023032920039 -0.27089454724435158 -0.057944757172022215 -0.11906504985095209 -0.20490552319101851 -0.08330492036188436 0.0035606525869374154 -0.021183210256253478 0.0168360640083354 0.011192586777967682 0.01130374333697416 0.003414145556295664
leaf_count=22 21 25 31 23 40 28 26 20 20 6989 25 21 26 31 100
internal_value=0 -2.28764 -2.6975 -3.1814 -2.4705 -1.1172 -3.83437 -2.22796 0.0641762 0.0690175 0.538509 0.0656517 0.0646784 0.0639247 0.107207
internal_count=7448 215 190 168 137 71 66 48 7233 7213 46 7167 7146 7120 131
shrinkage=0.0566408


Tree=74
num_leaves=13
num_cat=0
split_feature=27 4 26 42 21 5 29 40 17 34 35 16
split_gain=1047.55 207.918 170.732 160.561 134.906 119.662 92.2176 83.6244 66.6368 137.491 0.915612 0.154119
threshold=1590.7300000000002 48250.000000000007 23.500000000000004 212.00000000000003 83012.60000000002 3.5000000000000004 403.50000000000006 348.50000000000006 2126588.5000000005 1.5000000000000002 2.5000000000000004 11.200000000000001
decision_type=2 2 2 2 2 2 2 2 2 2 2 2
left_child=7 2 3 4 5 -2 -7 8 9 -1 11 -10
right_child=1 -3 -4 -5 -6 6 -8 -9 10 -11 -12 -13
leaf_value=0.023656234271432656 -0.28292982390214072 -0.2705792700470942 0.019245080499414896 -0.015223023537663409 -0.019318427260820361 -0.19219722137676651 -0.057348586186334968 0.10157811794593684 0.0034100626675682118 -0.16466061965701123 0.016304395246080124 0.0063829259950917549
leaf_count=25 28 26 31 37 22 40 34 26 7010 21 20 128
internal_value=0 -2.15473 -1.75007 -2.16129 -2.7016 -3.18088 -2.37045 0.0611832 0.0542646 -1.12062 0.0623147 0.0613921
internal_count=7448 218 192 161 124 102 74 7230 7204 46 7158 7138
shrinkage=0.0566408


Tree=75
num_leaves=16
num_cat=0
split_feature=17 41 3 28 29 22 41 42 22 40 17 3 35 22 40
split_gain=941.435 243.981 267.061 232.394 145.038 214.588 166.501 71.0764 50.5774 47.2739 12.3258 39.5409 0.773893 0.26433 0.106938
threshold=2075747.5000000002 389.50000000000006 7900.0000000000009 49.500000000000007 415.50000000000006 3428.5000000000005 203.50000000000003 86.500000000000014 3477.0000000000005 350.50000000000006 2126588.5000000005 12875.000000000002 2.5000000000000004 6101.5000000000009 334.50000000000006
decision_type=2 2 2 2 2 2 2 2 2 2 2 2 2 2 2
left_child=1 2 -1 -4 6 -6 8 -8 -5 10 11 -2 13 14 -12
right_child=9 -3 3 4 5 -7 7 -9 -10 -11 12 -13 -14 -15 -16
leaf_value=0.036979339372562821 0.089190229943845192 0.044475884339452411 -0.32530893083489987 0.065847311414917037 -0.30718748421140918 -0.083903708597016055 -0.060914119147182193 -0.22033185372622549 -0.055846249005095445 -0.079830404617773798 0.0032285641810533305 -0.011121017220358674 0.014897088698942459 0.010419614841407647 -0
leaf_count=23 20 25 24 20 29 31 20 23 20 20 7093 26 21 26 27
internal_value=0 -2.05736 -2.44337 -2.88144 -2.32422 -3.5154 -1.38785 -2.71239 0.0550232 0.0573688 0.0620056 0.571849 0.0583724 0.0574871 0.0567604
internal_count=7448 215 190 167 143 60 83 43 40 7233 7213 46 7167 7146 7120
shrinkage=0.0566408


Tree=76
num_leaves=14
num_cat=0
split_feature=17 59 58 58 4 43 42 40 17 4 35 22 40
split_gain=844.912 264.869 186.227 152.955 195.829 172.822 51.4155 42.4862 11.0095 44.9493 0.689357 0.230245 0.0962135
threshold=2075747.5000000002 321.50000000000006 35.500000000000007 29.500000000000004 17950.000000000004 11.500000000000002 88.500000000000014 350.50000000000006 2126588.5000000005 29700.000000000004 2.5000000000000004 6101.5000000000009 334.50000000000006
decision_type=2 2 2 2 2 2 2 2 2 2 2 2 2
left_child=1 3 -3 5 -5 -1 -7 8 9 -2 11 12 -10
right_child=7 2 -4 4 -6 6 -8 -9 10 -11 -12 -13 -14
leaf_value=0.076012179111240974 0.088943593350102143 -0.29077403423116699 -0.072667220787821396 -0.0068391365664657294 -0.21711659705605701 -0.0094545709876822787 -0.12002267909102873 -0.075686065759598992 0.0030457427479575116 -0.01780764899638488 0.014120631891524762 0.0098680671575080391 -0
leaf_count=34 21 36 23 24 37 24 37 20 7093 25 21 26 27
internal_value=0 -1.94925 -3.74139 -1.22627 -2.44311 -0.397645 -1.40278 0.0541369 0.0585435 0.540594 0.0550966 0.0542454 0.0535449
internal_count=7448 215 59 156 61 95 61 7233 7213 46 7167 7146 7120
shrinkage=0.0566408


Tree=77
num_leaves=16
num_cat=0
split_feature=27 40 41 26 42 41 40 42 17 17 2 35 22 16 16
split_gain=770.487 195.426 204.93 291.43 166.173 107.826 82.5661 71.5672 69.1958 55.4792 149.277 0.657212 0.195791 0.164642 0.0418117
threshold=1590.7300000000002 375.50000000000006 203.50000000000003 21.500000000000004 218.50000000000003 389.50000000000006 348.50000000000006 86.500000000000014 2021985.0000000002 2126588.5000000005 61500.000000000007 2.5000000000000004 6101.5000000000009 11.200000000000001 11.580000000000002
decision_type=2 2 2 2 2 2 2 2 2 2 2 2 2 2 2
left_child=6 2 3 8 5 7 9 -4 -2 10 -1 12 13 -11 -15
right_child=1 -3 4 -5 -6 -7 -8 -9 -10 11 -12 -13 -14 14 -16
leaf_value=-0.16823510621036517 -0.13172795205351248 -0.26128771872151818 -0.13484433971025747 0.14258422015070107 -0 -0.048590431497023252 0.1004160530717115 -0.2761837544570907 -0.0073223101384569779 0.0028202824504278876 0.028813905941148694 0.013951529414459348 0.0093457143149582485 0.010109404353152003 0.0032965432412980973
leaf_count=20 36 22 35 24 24 21 26 30 26 6984 26 20 26 30 98
internal_value=0 -1.84846 -1.49069 -0.302384 -2.3858 -3.02321 0.0519533 -3.65711 -1.45889 0.0450806 -1.02692 0.0524458 0.0516226 0.0509478 0.100453
internal_count=7448 218 196 86 110 86 7230 65 62 7204 46 7158 7138 7112 128
shrinkage=0.0566408


Tree=78
num_leaves=16
num_cat=0
split_feature=27 4 26 3 21 40 29 36 59 17 3 36 35 16 16
split_gain=691.76 179.259 140.376 180.687 137.941 74.0618 56.0256 73.9382 52.6573 49.7221 137.878 36.6617 0.585002 0.138306 0.0226962
threshold=1590.7300000000002 48250.000000000007 23.500000000000004 7900.0000000000009 29119.460000000003 348.50000000000006 174.50000000000003 157.50000000000003 231.50000000000003 2126588.5000000005 30050.000000000004 82.500000000000014 2.5000000000000004 11.200000000000001 11.580000000000002
decision_type=2 2 2 2 2 2 2 2 2 2 2 2 2 2 2
left_child=5 2 3 -2 11 9 -6 8 -8 10 -1 -5 13 -11 -15
right_child=1 -3 -4 4 6 -7 7 -9 -10 12 -12 -13 -14 14 -16
leaf_value=-0.16090205017927278 0.038876972223599017 -0.2364867847630629 0.028703138828707158 -0.26891861342709616 0 0.095100671724583655 -0.06959657570662249 -0.014293661141041402 -0.20275023116636307 0.0026983692471592509 0.028387325461764135 -0.13216646877527219 0.01322724650017754 0.0095695650254030602 0.0031132303912824485
leaf_count=20 24 26 31 21 21 26 24 23 24 7010 26 24 20 30 98
internal_value=0 -1.75163 -1.37929 -1.75358 -2.19559 0.0490715 -1.41856 -1.83357 -2.52317 0.0425508 -0.972221 -3.63409 0.0495344 0.0487421 0.0956286
internal_count=7448 218 192 161 137 7230 92 71 48 7204 46 45 7158 7138 128
shrinkage=0.0566408


Tree=79
num_leaves=18
num_cat=0
split_feature=27 26 9 41 28 20 5 41 35 0 42 58 17 3 16 22 17
split_gain=621.597 160.526 256.385 126.382 142.243 128.006 52.5513 43.1588 27.1561 18.8568 4.44244 51.2166 32.1375 5.95033 0.281728 0.0359643 0.0182008
threshold=1590.7300000000002 9.5000000000000018 1.0000000180025095e-35 182.50000000000003 102.00000000000001 16.500000000000004 5.5000000000000009 370.50000000000006 2.5000000000000004 32.500000000000007 186.50000000000003 40.500000000000007 2126588.5000000005 58850.000000000007 11.200000000000001 6101.5000000000009 2169414.0000000005
decision_type=2 2 2 2 2 2 2 2 2 2 2 2 2 2 2 2 2
left_child=7 9 -3 5 -5 -4 -6 8 10 -2 12 16 13 -1 15 -14 -12
right_child=1 2 3 4 6 -7 -8 -9 -10 -11 11 -13 14 -15 -16 -17 -18
leaf_value=0.074166053862855158 -0.10810405904591311 -0.24459131716931973 -0.073860370352684931 -0.18619972773980784 -0.068730795494752417 0.09610034185716082 0.035037048984008362 0.070727455964186822 -0.052402724696247092 -0.20814150297444287 0.0026584981057494734 -0.075991032978533046 0.0024940901341967948 0.020289542699866013 0.0089919754394685806 0.0076109426204769544 0
leaf_count=21 22 20 21 25 36 35 24 28 27 35 314 27 6722 20 31 20 20
internal_value=0 -1.6606 -1.11263 -0.597797 -1.36018 0.538942 -0.4589 0.0463385 0.0411341 -3.09965 0.0452204 -0.0607211 0.0510755 0.916615 0.045362 0.0445678 0.0449177
internal_count=7448 218 161 141 85 56 60 7230 7202 57 7175 361 6814 41 6773 6742 334
shrinkage=0.0566408


Tree=80
num_leaves=14
num_cat=0
split_feature=17 10 28 26 40 17 42 23 26 17 36 35 40
split_gain=560.913 355.75 240.543 100.23 66.4803 61.5733 54.8805 39.6035 19.2329 0.777753 2.96876 0.861174 0.430002
threshold=2021985.0000000002 2007.5000000000002 58.500000000000007 20.500000000000004 352.50000000000006 2066850.5000000002 44.500000000000007 8.5000000000000018 13.500000000000002 2126588.5000000005 210.50000000000003 2.5000000000000004 338.50000000000006
decision_type=2 2 2 2 2 2 2 2 2 2 2 2 2
left_child=2 4 -1 6 5 -2 -4 -8 9 10 -7 12 -11
right_child=1 -3 3 -5 -6 8 7 -9 -10 11 -12 -13 -14
leaf_value=-0.29232014143211582 -0.066992165336628717 -0.19337434124946459 -0.035467909254492877 0 0.093442332754274826 -0.0011475522430726204 -0.077034661927754794 -0.19842311763144291 0.05598977098656982 0.0024431060615328227 0.025186686417105707 0.014281543242851573 -0.0042181317389254494
leaf_count=20 39 28 23 33 24 20 22 27 20 7130 21 21 20
internal_value=0 0.0321552 -2.08901 -1.41136 0.0464439 0.0405267 -2.05916 -2.6547 0.047634 0.0445609 0.19042 0.0434624 0.0425685
internal_count=7448 7323 125 105 7295 7271 72 49 7232 7212 41 7171 7150
shrinkage=0.0566408


Tree=81
num_leaves=14
num_cat=0
split_feature=17 10 28 41 26 10 27 43 40 17 3 16 22
split_gain=504.257 318.898 215.95 95.9021 127.467 104.383 63.1908 139.294 5.41706 3.99267 27.0825 0.123604 0.0988117
threshold=2021985.0000000002 2007.5000000000002 58.500000000000007 218.50000000000003 21.500000000000004 1985.5000000000002 53107.030000000006 16.500000000000004 348.50000000000006 2126588.5000000005 12875.000000000002 11.200000000000001 6101.5000000000009
decision_type=2 2 2 2 2 2 2 2 2 2 2 2 2
left_child=2 6 -1 4 -4 -5 7 -2 9 10 -9 12 -11
right_child=1 -3 3 5 -6 -7 -8 8 -10 11 -12 -13 -14
leaf_value=-0.27714454586093956 0.14579304137088964 -0.18309025397520359 -0.084268447231911084 -0.21783305599349967 0.084636676813929237 -0.040525803854924533 -0.079700385504719251 0.065132206333155085 -0.020640385314548731 0.0022706501363714969 -0.0097625614854016385 0.0048513985769709092 0.0074049827023034724
leaf_count=20 20 28 39 23 20 23 28 22 30 7003 39 127 26
internal_value=0 0.0303154 -1.98087 -1.3377 -0.436922 -2.39997 0.043855 0.0500102 0.0421857 0.0441823 0.299333 0.0417149 0.0406784
internal_count=7448 7323 125 105 59 46 7295 7267 7247 7217 61 7156 7029
shrinkage=0.0566408


Tree=82
num_leaves=14
num_cat=0
split_feature=17 10 2 21 41 40 17 29 16 17 4 35 40
split_gain=453.046 285.865 208.332 188.867 72.5832 60.5822 56.3279 23.8817 14.8329 0.838716 2.2834 0.731992 0.32686
threshold=2021985.0000000002 2007.5000000000002 29750.000000000004 53270.405000000006 218.50000000000003 352.50000000000006 2066850.5000000002 415.50000000000006 11.880000000000001 2126588.5000000005 45850.000000000007 2.5000000000000004 338.50000000000006
decision_type=2 2 2 2 2 2 2 2 2 2 2 2 2
left_child=2 5 3 4 -1 6 -2 -5 9 10 -8 12 -11
right_child=1 -3 -4 7 -6 -7 8 -9 -10 11 -12 -13 -14
leaf_value=-0.064351075589545198 -0.064247100280805755 -0.17335310108171367 -0.26819862078745321 0.062815333474966928 -0.1944343454145504 0.089032515974039411 0.02366436199681143 -0.018399192605578922 0.048197174320022858 0.0021714213834061031 -0 0.013119464835108318 -0.003416780936426327
leaf_count=34 39 28 20 21 30 24 20 20 21 7130 20 21 20
internal_value=0 0.0285815 -1.87775 -1.24753 -2.30143 0.0414118 0.0357544 0.389262 0.0425626 0.0397791 0.190992 0.038671 0.0378285
internal_count=7448 7323 125 105 64 7295 7271 41 7232 7211 40 7171 7150
shrinkage=0.0566408


Tree=83
num_leaves=17
num_cat=0
split_feature=27 40 41 20 10 4 5 40 42 35 16 35 4 5 41 2
split_gain=404.995 177.959 142.615 147.536 141.121 120.558 92.4934 65.0303 63.5989 29.1801 4.78569 35.421 3.24229 0.460818 0.0228413 0.00592905
threshold=1590.7300000000002 375.50000000000006 203.50000000000003 16.500000000000004 1985.5000000000002 21900.000000000004 3.5000000000000004 348.50000000000006 166.50000000000003 2.5000000000000004 10.900000000000002 1.5000000000000002 1.0000000180025095e-35 2.5000000000000004 370.50000000000006 38750.000000000007
decision_type=2 2 2 2 2 2 2 2 2 2 2 2 2 2 2 2
left_child=7 2 3 -2 -4 -5 -6 9 -8 10 12 13 -1 15 -14 -12
right_child=1 -3 4 5 6 -7 8 -9 -10 -11 11 -13 14 -15 -16 -17
leaf_value=0.023417215482539902 -0.087051224615209533 -0.22418578350514284 -0.18595736723692091 0.15066802403279128 -0.14676115192033004 -0.018750048404742637 -0.057402071618331565 0.088581780780239303 0.065398797643512349 -0.057122297051515933 0.0012008649058715837 -0.072981254293624634 0.0021020026444707658 0.011647008848308694 0 0
leaf_count=22 36 22 38 23 20 27 31 26 21 25 66 21 7002 22 26 20
internal_value=0 -1.34095 -1.00563 -0.0187031 -1.75048 1.06005 -0.859544 0.0368466 -0.0996024 0.0307261 0.034816 -0.152378 0.0384997 0.0721046 0.0369985 0.0167218
internal_count=7448 218 196 86 110 50 72 7230 52 7204 7179 129 7050 108 7028 86
shrinkage=0.0566408


Tree=84
num_leaves=16
num_cat=0
split_feature=27 40 42 21 4 28 28 22 40 40 16 23 4 35 22
split_gain=363.418 160.255 109.087 108.625 95.2023 80.3422 84.9204 62.8177 58.3325 56.0034 26.4271 163.862 2.88511 1.92785 0.0944859
threshold=1590.7300000000002 373.50000000000006 212.00000000000003 112881.15000000001 24750.000000000004 50.500000000000007 123.50000000000001 2246.5000000000005 348.50000000000006 104.50000000000001 10.900000000000002 15.500000000000002 1.0000000180025095e-35 2.5000000000000004 6101.5000000000009
decision_type=2 2 2 2 2 2 2 2 2 2 2 2 2 2 2
left_child=8 2 3 5 -4 -2 -7 -8 10 -9 12 -12 -1 14 -14
right_child=1 -3 4 -5 -6 6 7 9 -10 -11 11 -13 13 -15 -16
leaf_value=0.022192234737112775 -0.19974914660991819 -0.20944462624431959 0.10357836254425826 0.032532453029977967 -0.057452686463940889 0.0084826516193494596 -0.011885322665791325 -0.19698209146907325 0.083892825359648371 -0.074586263236086608 -0.16159410183498071 0.0042099492621372669 0.0019447672912437561 0.018947132592695599 0.0068124793951180578
leaf_count=22 20 23 22 23 21 28 21 25 26 35 21 112 7002 21 26
internal_value=0 -1.27038 -0.944623 -1.3414 0.420812 -1.69807 -1.29612 -1.80697 0.0347847 -2.31823 0.0289764 -0.408656 0.0375304 0.0361037 0.0349049
internal_count=7448 218 195 152 43 129 109 81 7230 60 7204 133 7071 7049 7028
shrinkage=0.0566408


Tree=85
num_leaves=17
num_cat=0
split_feature=10 5 7 2 10 17 43 23 5 10 40 17 35 16 16 22
split_gain=351.901 482.61 198.668 196.819 152.298 131.152 91.3436 85.4095 80.494 21.0023 5.34067 2.31263 1.12435 0.549907 0.278919 0.0933749
threshold=2003.5000000000002 3.5000000000000004 3.5000000000000004 9900.0000000000018 1997.5000000000002 2102426.5000000005 9.5000000000000018 9.5000000000000018 5.5000000000000009 2007.5000000000002 348.50000000000006 2126588.5000000005 2.5000000000000004 11.200000000000001 11.580000000000002 6101.5000000000009
decision_type=2 2 2 2 2 2 2 2 2 2 2 2 2 2 2 2
left_child=2 -2 5 -3 6 -1 8 -8 -4 -5 11 -7 13 15 -15 -13
right_child=1 3 4 9 -6 10 7 -9 -10 -11 -12 12 -14 14 -16 -17
leaf_value=0.1171893279730859 -0.29223639616488339 0.10773476651648838 0.033646168255075104 -0.12200926143146974 0.043861703249446327 0.018369173059524301 -0.064493182585704148 -0.23655373291538503 -0.118950121589406 -0.035836368016713624 -0.023569177947095291 0.0017392834870041919 0.015329923772572845 0.011818943094020618 0.0029287209301014556 0.0064518700837583971
leaf_count=30 29 23 20 26 25 27 20 24 20 22 24 6984 20 30 98 26
internal_value=0 -1.84992 0.0219408 -0.381607 -1.30641 0.04248 -1.94707 -2.92958 -0.748707 -1.53654 0.0333112 0.0351334 0.0337437 0.0327937 0.102858 0.0312667
internal_count=7448 100 7348 71 109 7239 84 44 40 48 7209 7185 7158 7138 128 7010
shrinkage=0.0566408


Tree=86
num_leaves=14
num_cat=0
split_feature=17 10 2 21 40 41 17 0 26 40 36 2 16
split_gain=319.998 212.135 186.674 155.958 67.7777 57.6173 38.1073 19.8183 19.1945 4.13767 0.687373 2.25574 0.521799
threshold=2021985.0000000002 2008.5000000000002 29750.000000000004 53270.405000000006 353.50000000000006 218.50000000000003 2066850.5000000002 34.500000000000007 13.500000000000002 348.50000000000006 82.500000000000014 20950.000000000004 10.900000000000002
decision_type=2 2 2 2 2 2 2 2 2 2 2 2 2
left_child=2 4 3 5 6 -1 -2 -5 9 10 11 -8 -12
right_child=1 -3 -4 7 -6 -7 8 -9 -10 -11 12 -13 -14
leaf_value=-0.051599039383162994 -0.052903441499231298 -0.1673666111656516 -0.24212408965610183 -0.0086245804424411928 0.10164740800031623 -0.16718179863914853 -0.014067319634034266 0.064747306230322516 0.055091538042623192 -0.021545556762619093 0.0018418629818669299 0.0011434388690631115 0.0058073297920301714
leaf_count=34 39 22 20 20 20 30 35 21 20 22 6868 168 129
internal_value=0 0.023741 -1.57839 -0.986162 0.0336635 -1.9463 0.0281659 0.49538 0.0337952 0.0307358 0.0323034 -0.0203338 0.0340571
internal_count=7448 7323 125 105 7301 64 7281 41 7242 7222 7200 203 6997
shrinkage=0.0566408


Tree=87
num_leaves=15
num_cat=0
split_feature=40 40 7 2 21 59 17 36 41 22 40 17 35 16
split_gain=295.547 190.297 110.358 198.736 174.975 209.295 140.394 53.2804 52.186 73.3203 4.52443 2.07693 1.0214 0.440166
threshold=375.50000000000006 29.500000000000004 2.5000000000000004 7900.0000000000009 44117.390000000007 317.50000000000006 2102426.5000000005 72.500000000000014 218.50000000000003 2323.5000000000005 348.50000000000006 2126588.5000000005 2.5000000000000004 11.200000000000001
decision_type=2 2 2 2 2 2 2 2 2 2 2 2 2 2
left_child=1 -1 6 -4 5 7 -3 -5 -6 -10 11 -8 13 -13
right_child=-2 2 3 4 8 -7 10 -9 9 -11 -12 12 -14 -15
leaf_value=-0.13358585791588745 -0.19938333240191172 0.14563047276289434 0.11041603779891317 -0.1194141312687407 0.033770858865200051 -0.2826432864298366 0.017296729799617581 0 0.015375247078454656 -0.12855017980815309 -0.021734518921309631 0.0015717387743589075 0.014479757736447019 0.0052303927665855289
leaf_count=32 22 20 21 22 39 20 27 22 21 20 24 7010 20 128
internal_value=0 0.00780705 0.0188359 -0.784872 -1.21363 -2.42375 0.037588 -1.07141 -0.194169 -0.975632 0.0296965 0.0313902 0.0300626 0.0291482
internal_count=7448 7426 7394 165 144 64 7229 44 80 41 7209 7185 7158 7138
shrinkage=0.0566408


Tree=88
num_leaves=13
num_cat=0
split_feature=40 17 42 26 43 42 0 40 24 10 40 21
split_gain=265.422 172.121 133.957 132.379 126.555 123.296 69.3464 56.5881 29.3103 16.4113 2.2588 1.61157
threshold=375.50000000000006 2021985.0000000002 12.000000000000002 23.500000000000004 2.5000000000000004 44.500000000000007 33.500000000000007 121.50000000000001 4.5000000000000009 1985.5000000000002 348.50000000000006 96590.140000000014
decision_type=2 2 2 2 2 2 2 2 2 2 2 2
left_child=1 3 -3 5 -4 -1 -7 -8 9 10 11 -6
right_child=-2 2 4 -5 8 6 7 -9 -10 -11 -12 -13
leaf_value=0 -0.18895336552777578 -0.13855844333811679 0.1296675494167345 0.058019435977899513 0.0016775200130158595 -0.050181151163168264 -0.25245533861483416 -0.098633455021499436 -0.05985082461604848 0.047818373254889524 -0.014539281165589025 -0.01331377786498701
leaf_count=29 22 20 23 20 7177 24 20 22 23 23 25 20
internal_value=0 0.00731325 0.0267566 -1.19664 0.0343623 -1.69072 -2.42874 -3.20148 0.0264413 0.0303586 0.0273396 0.0286065
internal_count=7448 7426 7311 115 7291 95 66 42 7268 7245 7222 7197
shrinkage=0.0566408


Tree=89
num_leaves=16
num_cat=0
split_feature=10 5 41 7 2 4 21 10 35 40 17 16 16 4 22
split_gain=249.45 416.508 165.795 209.063 160.774 122.696 140.713 22.441 14.9461 7.85147 3.23281 0.410297 0.263816 0.148233 0.09613
threshold=2003.5000000000002 3.5000000000000004 381.50000000000006 3.5000000000000004 9900.0000000000018 28200.000000000004 50327.775000000009 2007.5000000000002 2.5000000000000004 348.50000000000006 2126588.5000000005 11.200000000000001 11.580000000000002 30750.000000000004 6101.5000000000009
decision_type=2 2 2 2 2 2 2 2 2 2 2 2 2 2 2
left_child=2 -2 3 8 -3 6 -5 -6 9 10 13 14 -13 -1 -12
right_child=1 4 -4 5 7 -7 -8 -9 -10 -11 11 12 -14 -15 -16
leaf_value=0.022614559310637078 -0.26226078712876683 0.10549401823221426 0.15693879873972816 -0.10844195335045044 -0.10563351075416964 -0.17727931051957388 0.057932421649334029 -0.020691067497176318 0.039887272143193681 -0.030168048276742375 0.001363509562492407 0.010508826703553718 0.0021581551916182518 0.005382314186776746 0.0058422794434048082
leaf_count=23 29 23 20 35 26 29 27 22 31 23 6984 30 98 22 26
internal_value=0 -1.55781 0.0181704 0.00975963 -0.197167 -1.48117 -0.618383 -1.24724 0.0290892 0.0257924 0.0279309 0.0259672 0.0867279 0.293148 0.0246142
internal_count=7448 100 7348 7328 71 91 62 48 7237 7206 7183 7138 128 45 7010
shrinkage=0.0566408


Tree=90
num_leaves=13
num_cat=0
split_feature=40 40 41 17 3 21 4 40 44 40 41 17
split_gain=232.609 150.393 94.6444 125.411 124.582 102.221 85.2597 78.3575 27.3873 7.54972 1.17844 1.87743
threshold=375.50000000000006 29.500000000000004 398.50000000000006 2066850.5000000002 8650.0000000000018 110566.05000000002 16950.000000000004 99.500000000000014 29.500000000000004 348.50000000000006 370.50000000000006 2126588.5000000005
decision_type=2 2 2 2 2 2 2 2 2 2 2 2
left_child=1 -1 3 4 -3 6 -6 -8 -5 10 11 -10
right_child=-2 2 -4 8 5 -7 7 -9 9 -11 -12 -13
leaf_value=-0.11876236656108125 -0.17689038121678255 0.06754438496091042 0.11874977103762863 0.056749126884984485 -0.038053831313970006 0.020925693365075809 -0.077854760090500782 -0.2397502082459507 0.014205125249437046 -0.027958303185016728 -0.0091997421751085825 0.0014381457304324307
leaf_count=32 22 20 20 27 36 23 25 21 37 26 29 7130
internal_value=0 0.00680629 0.016634 0.0102662 -0.975243 -1.41596 -1.93241 -2.82334 0.0277148 0.0236062 0.025815 0.0268342
internal_count=7448 7426 7394 7374 125 105 82 46 7249 7222 7196 7167
shrinkage=0.0566408


Tree=91
num_leaves=12
num_cat=0
split_feature=40 40 41 17 59 4 21 44 40 41 35
split_gain=208.896 134.696 85.0807 112.517 152.609 116.064 65.9348 24.5594 6.77243 1.05919 1.69954
threshold=375.50000000000006 29.500000000000004 398.50000000000006 2066850.5000000002 323.50000000000006 16950.000000000004 107697.61500000001 29.500000000000004 348.50000000000006 370.50000000000006 2.5000000000000004
decision_type=2 2 2 2 2 2 2 2 2 2 2
left_child=1 -1 3 4 5 -3 -7 -5 9 10 -9
right_child=-2 2 -4 7 -6 6 -8 8 -10 -11 -12
leaf_value=-0.1123977359988102 -0.16763704898783446 0.063205195093658531 0.11258496285017761 0.053737890284830281 -0.14785256393302981 -0.11540061872840587 0.0088393288904099251 0.0013717071543576536 -0.026478367566574328 -0.0087094463571680478 0.017211112686379496
leaf_count=32 22 37 20 27 36 31 21 7146 26 29 21
internal_value=0 0.00635208 0.015664 0.00961557 -0.923841 -0.185911 -1.14744 0.0261538 0.0222516 0.0243544 0.0253305
internal_count=7448 7426 7394 7374 125 89 52 7249 7222 7196 7167
shrinkage=0.0566408


Tree=92
num_leaves=16
num_cat=0
split_feature=10 5 41 7 2 2 21 10 35 40 16 22 22 41 59
split_gain=194.099 371.814 141.281 159.529 130.685 107.242 114.655 23.4908 14.3453 5.59857 0.103594 0.488514 0.0940783 0.0331971 0.0084538
threshold=2003.5000000000002 3.5000000000000004 381.50000000000006 3.5000000000000004 9900.0000000000018 26100.000000000004 48442.125000000007 2007.5000000000002 2.5000000000000004 348.50000000000006 11.200000000000001 4397.0000000000009 6101.5000000000009 370.50000000000006 88.500000000000014
decision_type=2 2 2 2 2 2 2 2 2 2 2 2 2 2 2
left_child=2 -2 3 8 -3 6 -5 -6 9 10 12 -12 13 -1 -13
right_child=1 4 -4 5 7 -7 -8 -9 -10 -11 11 14 -14 -15 -16
leaf_value=0.001269017042172016 -0.24218931523150544 0.099888126868509855 0.14482699700442661 -0.097713863741404824 -0.094148229835810643 -0.17821938424097136 0.04494310058901204 -0.009782425822825052 0.038872687998142072 -0.025441893237766404 0.0086962050775224765 -0 0.0056373830110812897 -0 0.00061110095790437805
leaf_count=7006 29 23 20 39 26 22 30 22 31 23 39 20 26 20 72
internal_value=0 -1.37421 0.015965 0.0081848 -0.0904327 -1.29416 -0.615938 -1.04193 0.0250966 0.0218642 0.0237019 0.0597302 0.0227974 0.0222669 0.0012182
internal_count=7448 100 7348 7328 71 91 69 48 7237 7206 7183 131 7052 7026 92
shrinkage=0.0566408


Tree=93
num_leaves=12
num_cat=0
split_feature=40 40 41 17 59 59 10 16 40 17 16
split_gain=182.963 113.256 72.5415 88.7884 135.076 106.452 46.7824 17.1843 5.86026 1.46662 0.338449
threshold=375.50000000000006 29.500000000000004 398.50000000000006 2066850.5000000002 323.50000000000006 243.50000000000003 1997.5000000000002 12.500000000000002 348.50000000000006 2126588.5000000005 11.200000000000001
decision_type=2 2 2 2 2 2 2 2 2 2 2
left_child=1 -1 3 4 5 6 -3 8 9 -5 -11
right_child=-2 2 -4 7 -6 -7 -8 -9 -10 10 -12
leaf_value=-0.10305562598697594 -0.15688620470919615 -0.08488280048835628 0.10396236407285409 0.011958132313432471 -0.13628247292291673 0.095051981747294803 0.0064533604608364688 0.047549659492739663 -0.02463317699517191 0.0011251178386950111 0.0043155023853484091
leaf_count=32 22 37 20 41 36 22 30 24 26 7030 128
internal_value=0 0.00595487 0.0145108 0.00890964 -0.820255 -0.12633 -0.77012 0.023624 0.0204882 0.022458 0.0211072
internal_count=7448 7426 7394 7374 125 89 67 7249 7225 7199 7158
shrinkage=0.0566408


Tree=94
num_leaves=15
num_cat=0
split_feature=10 5 10 7 2 4 21 17 10 40 17 16 16 22
split_gain=166.678 335.559 124.515 165.859 114.024 70.5204 188.019 22.5921 22.5445 1.82084 1.44045 0.298506 0.245976 0.0973979
threshold=2003.5000000000002 3.5000000000000004 1998.5000000000002 3.5000000000000004 9900.0000000000018 29700.000000000004 50327.775000000009 2102426.5000000005 2007.5000000000002 348.50000000000006 2126588.5000000005 11.200000000000001 11.580000000000002 6101.5000000000009
decision_type=2 2 2 2 2 2 2 2 2 2 2 2 2 2
left_child=2 -2 3 7 -3 6 -5 -1 -6 10 -9 13 -13 -12
right_child=1 4 -4 5 8 -7 -8 9 -10 -11 11 12 -14 -15
leaf_value=0.053293908009089154 -0.22824050405664134 0.094952427152817792 0.12044935995362722 -0.13307955464649446 -0.087752988925325154 -0.14694803943599893 0.062552138349166231 0.014103385013545982 -0.0057548078292636402 -0.013618675088360932 0.0010318347678499207 0.0092621865354298519 0.0014659169118560311 0.0052794196375085672
leaf_count=25 29 23 26 30 26 29 29 27 22 24 7004 30 98 26
internal_value=0 -1.27343 0.0148156 0.00657822 -0.0537374 -1.34365 -0.644104 0.0235519 -0.944878 0.0199186 0.0210649 0.0199253 0.0719358 0.0187393
internal_count=7448 100 7348 7322 71 88 59 7234 48 7209 7185 7158 128 7030
shrinkage=0.0566408


Tree=95
num_leaves=13
num_cat=0
split_feature=40 40 41 17 59 41 45 33 44 40 35 41
split_gain=161.617 96.8022 66.3938 71.9972 121.748 96.4155 67.5704 56.8988 25.7494 5.09322 0.957124 0.481858
threshold=375.50000000000006 29.500000000000004 398.50000000000006 2066850.5000000002 323.50000000000006 210.50000000000003 2.5000000000000004 6.5000000000000009 23.500000000000004 348.50000000000006 2.5000000000000004 370.50000000000006
decision_type=2 2 2 2 2 2 2 2 2 2 2 2
left_child=1 -1 3 4 5 7 -7 -3 -5 10 11 -10
right_child=-2 2 -4 8 -6 6 -8 -9 9 -11 -12 -13
leaf_value=-0.09526422561580912 -0.14744546080374454 0.10618891559822415 0.099444355471079229 0.055663795461955649 -0.12705628842006372 -0.1299803166985761 0.0037339818483129701 -0.015550557659154337 0.0010900969307745013 -0.023050449749513556 0.012777398475429434 -0.0056828595088060617
leaf_count=32 22 25 20 26 36 22 22 20 7147 26 22 28
internal_value=0 0.00568401 0.0136097 0.0082421 -0.738376 -0.0798284 -1.12487 0.912852 0.0215128 0.0175911 0.019443 0.0185376
internal_count=7448 7426 7394 7374 125 89 44 45 7249 7223 7197 7175
shrinkage=0.0566408


Tree=96
num_leaves=12
num_cat=0
split_feature=40 40 10 41 27 41 23 20 17 17 40
split_gain=145.144 86.7004 65.9577 65.2247 30.6268 169.274 89.3905 64.7819 17.3007 1.45936 1.34356
threshold=375.50000000000006 29.500000000000004 2009.5000000000002 389.50000000000006 18689.660000000003 203.50000000000003 11.500000000000002 22.000000000000004 2066850.5000000002 2126588.5000000005 348.50000000000006
decision_type=2 2 2 2 2 2 2 2 2 2 2
left_child=1 -1 3 4 8 7 -7 -6 -3 -10 -11
right_child=-2 2 -4 -5 5 6 -8 -9 9 10 -12
leaf_value=-0.090158890915650769 -0.13973241755585264 0.048479508291865196 -0.093331520168432783 0.096680788502449516 -0.035094654940804722 -0.17301101563046969 -0.019311288919557447 0.083616641169151226 0.012026709822538171 0.0010040379453922573 -0.011688174005974451
leaf_count=32 22 23 22 21 22 26 25 35 38 7158 24
internal_value=0 0.00532138 0.0128333 0.0184052 0.012949 -0.510632 -1.81133 0.646812 0.0210966 0.0180072 0.0167095
internal_count=7448 7426 7394 7372 7351 108 51 57 7243 7220 7182
shrinkage=0.0566408


Tree=97
num_leaves=15
num_cat=0
split_feature=10 5 41 27 2 2 21 10 17 40 17 16 35 16
split_gain=130.804 294.239 117.337 101.982 100.484 92.7724 97.1726 23.1414 13.0123 1.22211 1.17193 0.274555 0.276469 0.221744
threshold=2003.5000000000002 3.5000000000000004 381.50000000000006 23917.635000000006 9900.0000000000018 26100.000000000004 48442.125000000007 2007.5000000000002 2102426.5000000005 348.50000000000006 2126588.5000000005 11.200000000000001 2.5000000000000004 11.580000000000002
decision_type=2 2 2 2 2 2 2 2 2 2 2 2 2 2
left_child=2 -2 3 8 -3 6 -5 -6 -1 10 -10 12 -12 -13
right_child=1 4 -4 5 7 -7 -8 -9 9 -11 11 13 -14 -15
leaf_value=0.03985407815655332 -0.2100403384940292 0.092667087653694899 0.13189906566049567 -0.087896822626927718 -0.081207735648690133 -0.15289754803372513 0.041589451728966137 -0 0.012659020119394616 -0.011072832594793518 0.00084849526258820639 0.008655762989266326 0.007770910238349759 0.0012369846537477372
leaf_count=26 29 23 20 35 26 23 35 22 27 24 7010 30 20 98
internal_value=0 -1.12816 0.0130562 0.00594759 -0 -1.02409 -0.397539 -0.826672 0.0196567 0.0167976 0.017772 0.0167226 0.0155841 0.0662036
internal_count=7448 100 7348 7328 71 93 70 48 7235 7209 7185 7158 7030 128
shrinkage=0.0566408


Tree=98
num_leaves=13
num_cat=0
split_feature=40 40 35 24 21 10 21 27 22 17 58 40
split_gain=127.022 73.2286 62.5897 70.8972 111.754 43.9315 95.3378 86.7812 57.1483 13.3991 11.1322 1.08432
threshold=375.50000000000006 29.500000000000004 3.5000000000000004 4.5000000000000009 44117.390000000007 1998.5000000000002 26605.995000000006 18925.525000000005 3828.5000000000005 2126588.5000000005 23.500000000000004 348.50000000000006
decision_type=2 2 2 2 2 2 2 2 2 2 2 2
left_child=1 -1 3 5 -5 7 -7 9 -9 10 -3 -11
right_child=-2 2 -4 4 -6 6 -8 8 -10 11 -12 -13
leaf_value=-0.082851460004218516 -0.13071785520033455 0.061123849667234394 0.087056365865795515 -0.12992377971559887 0.018346811139657155 -0.023704720329793653 0.1354587933915492 -0.014419497599599549 -0.14035935688725812 0.00088996424943239719 0.0010700537453390648 -0.010489887053835785
leaf_count=32 22 20 25 32 29 22 22 28 21 7147 24 24
internal_value=0 0.0049866 0.0119071 0.00614419 -1.0513 0.0154427 0.991853 0.00906766 -1.29268 0.0184473 0.558426 0.0147768
internal_count=7448 7426 7394 7369 61 7308 44 7264 49 7215 44 7171
shrinkage=0.0566408


Tree=99
num_leaves=14
num_cat=0
split_feature=17 4 43 10 10 40 17 26 17 23 16 16 22
split_gain=288.745 483.171 122.769 71.9794 71.9355 58.8595 45.9977 32.7613 0.499785 3.77431 0.421623 0.44258 0.200055
threshold=2021985.0000000002 21900.000000000004 40.500000000000007 1996.5000000000002 2008.5000000000002 352.50000000000006 2066850.5000000002 13.500000000000002 2126588.5000000005 16.500000000000004 11.200000000000001 11.580000000000002 6101.5000000000009
decision_type=2 2 2 2 2 2 2 2 2 2 2 2 2
left_child=1 2 3 -1 5 6 -2 8 9 -8 12 -12 -10
right_child=4 -3 -4 -5 -6 -7 7 -9 10 -11 11 -13 -14
leaf_value=0.1163658568130682 -0.062297273001680767 -0.25881746248950122 -0.096253104434531764 -0.014479368800827556 -0.090073802154111662 0.079288363914653354 -0.0039228122737878044 0.068949919295899845 0.00074856918769084521 0.024733962706684494 0.010194964601948157 0.0010358839284607653 0.0055615045340846074
leaf_count=22 35 35 31 28 26 29 30 21 7013 21 33 92 32
internal_value=0 -1.56392 -0.17458 0.767332 0.0139919 0.0203081 0.0142485 0.0201222 0.0161197 0.117564 0.0151521 0.0751862 0.0138475
internal_count=7448 116 81 50 7332 7306 7277 7242 7221 51 7170 125 7045
shrinkage=0.0566408


Tree=100
num_leaves=14
num_cat=0
split_feature=17 4 43 10 10 40 17 26 17 23 16 16 22
split_gain=258.59 432.43 109.963 64.7508 64.5239 52.7497 41.1819 29.4335 0.432034 3.40803 0.38481 0.384781 0.17735
threshold=2021985.0000000002 21900.000000000004 40.500000000000007 1996.5000000000002 2008.5000000000002 352.50000000000006 2066850.5000000002 13.500000000000002 2126588.5000000005 16.500000000000004 11.200000000000001 11.580000000000002 6101.5000000000009
decision_type=2 2 2 2 2 2 2 2 2 2 2 2 2
left_child=1 2 3 -1 5 6 -2 8 9 -8 12 -12 -10
right_child=4 -3 -4 -5 -6 -7 7 -9 10 -11 11 -13 -14
leaf_value=0.11027862599309529 -0.058943203117365471 -0.24488278940870725 -0.09110371828312587 -0.013709322435767749 -0.085305871985061413 0.075062735622514781 -0.0037133360745041704 0.065356151959517661 0.00070618065691355723 0.02344479425822615 0.0096477105297931767 0.00097834938427250845 0.0052634557805451825
leaf_count=22 35 35 31 28 26 29 30 21 7013 21 33 92 32
internal_value=0 -1.47999 -0.164568 0.725754 0.0132438 0.0192369 0.0134889 0.019058 0.0152528 0.109958 0.0143351 0.0717819 0.0130773
internal_count=7448 116 81 50 7332 7306 7277 7242 7221 51 7170 125 7045
shrinkage=0.0566408


Tree=101
num_leaves=12
num_cat=0
split_feature=17 4 43 10 10 35 24 10 7 17 22
split_gain=231.597 387.005 98.7587 60.5264 57.8763 51.0335 53.3855 53.1214 10.965 5.70974 0.24211
threshold=2021985.0000000002 21900.000000000004 47.500000000000007 1996.5000000000002 2008.5000000000002 3.5000000000000004 4.5000000000000009 1994.0000000000002 2.5000000000000004 2126588.5000000005 6101.5000000000009
decision_type=2 2 2 2 2 2 2 2 2 2 2
left_child=1 2 3 -1 5 6 7 8 9 -2 -11
right_child=4 -3 -4 -5 -6 -7 -8 -9 -10 10 -12
leaf_value=0.1045098278614596 0.02086604873373683 -0.23169836093619817 -0.090298284396218037 -0.013643486383154822 -0.080790323331450656 0.08755929337997434 -0.083848927782937954 0.07782412405408709 -0.039272980635378936 0.00068759593269938652 0.0057952176259592064
leaf_count=22 44 35 29 30 26 20 22 27 20 7140 33
internal_value=0 -1.40061 -0.155126 0.6454 0.0125377 0.0182248 0.0134333 0.0185409 0.0129252 0.0152719 0.0127966
internal_count=7448 116 81 52 7332 7306 7286 7264 7237 7217 7173
shrinkage=0.0566408


Tree=102
num_leaves=12
num_cat=0
split_feature=17 4 43 10 10 37 24 10 7 17 40
split_gain=207.446 346.32 88.4783 54.4448 51.9112 45.8733 47.9455 47.6335 9.85668 5.10359 1.32943
threshold=2021985.0000000002 21900.000000000004 47.500000000000007 1996.5000000000002 2008.5000000000002 3.5000000000000004 4.5000000000000009 1994.0000000000002 2.5000000000000004 2126588.5000000005 345.50000000000006
decision_type=2 2 2 2 2 2 2 2 2 2 2
left_child=1 2 3 -1 5 6 7 8 9 -2 -11
right_child=4 -3 -4 -5 -6 -7 -8 -9 -10 10 -12
leaf_value=0.099042801867353772 0.019731146133822649 -0.21922377167317345 -0.08548588427068772 -0.01291492707993477 -0.076513796671611387 0.08301371610073123 -0.079462695926593122 0.073694599395223992 -0.037234150838299687 0.00073858374579746622 -0.013064066065149744
leaf_count=22 44 35 29 30 26 20 22 27 20 7153 20
internal_value=0 -1.3256 -0.146327 0.610285 0.0118368 0.0172339 0.01268 0.0175315 0.0122023 0.0144381 0.0120857
internal_count=7448 116 81 52 7332 7306 7286 7264 7237 7217 7173
shrinkage=0.0566408


Tree=103
num_leaves=15
num_cat=0
split_feature=17 4 43 10 10 40 17 26 16 40 17 29 58 22
split_gain=185.817 309.901 79.263 48.9789 46.8618 56.1048 38.2908 26.2596 0.393502 1.56588 0.324255 0.777739 0.175558 0.136808
threshold=2021985.0000000002 21900.000000000004 47.500000000000007 1996.5000000000002 2007.5000000000002 352.50000000000006 2066850.5000000002 13.500000000000002 10.900000000000002 102.50000000000001 2126588.5000000005 415.50000000000006 13.500000000000002 6101.5000000000009
decision_type=2 2 2 2 2 2 2 2 2 2 2 2 2 2
left_child=1 2 3 -1 5 6 -2 8 10 -10 11 -8 -11 -12
right_child=4 -3 -4 -5 -6 -7 7 -9 9 12 13 -13 -14 -15
leaf_value=0.093861758120034833 -0.05693243691906464 -0.20742082320468397 -0.080929957719061058 -0.012225275420792013 -0.065850741864515672 0.084321794069527251 0.013173432557622045 0.061658265121855349 0.013876880182739831 0.003810504032836318 0.00059415901577071929 -0 -0.0013465390496271139 0.0046312257194895219
leaf_count=22 35 35 29 30 32 24 21 21 35 28 7013 21 70 32
internal_value=0 -1.25464 -0.138025 0.576999 0.0111471 0.0167935 0.0113538 0.0167329 0.0131268 0.0691274 0.0118394 0.102089 0 0.011055
internal_count=7448 116 81 52 7332 7300 7276 7241 7220 133 7087 42 98 7045
shrinkage=0.0566408


Tree=104
num_leaves=12
num_cat=0
split_feature=17 4 43 29 10 35 24 10 40 35 17
split_gain=166.47 277.302 71.0028 49.5143 42.186 42.2628 42.6841 41.7372 7.87875 5.13855 2.45802
threshold=2021985.0000000002 21900.000000000004 47.500000000000007 536.50000000000011 2008.5000000000002 3.5000000000000004 4.5000000000000009 1994.0000000000002 348.50000000000006 2.5000000000000004 2075747.5000000002
decision_type=2 2 2 2 2 2 2 2 2 2 2
left_child=1 2 3 -1 5 6 7 8 9 10 -2
right_child=4 -3 -4 -5 -6 -7 -8 -9 -10 -11 -12
leaf_value=0.073876661713669023 -0.017395388872384693 -0.19625332986815383 -0.076616838820290994 -0.034274996559853319 -0.068977924258662796 0.079616088682706823 -0.075026675620046571 0.06894006608880901 -0.031174295754478398 0.028262712832840362 0.00070084580429796174
leaf_count=32 22 35 29 20 26 20 22 27 23 20 7172
internal_value=0 -1.18752 -0.130192 0.545446 0.0105596 0.0154458 0.0110665 0.0156563 0.0106544 0.0127966 0.0111034
internal_count=7448 116 81 52 7332 7306 7286 7264 7237 7214 7194
shrinkage=0.0566408


Tree=105
num_leaves=17
num_cat=0
split_feature=17 4 36 28 8 27 36 17 3 20 40 22 35 42 22 58
split_gain=149.286 250.329 95.9093 102.829 39.5739 145.372 92.757 80.5251 63.3139 59.1557 1.36724 0.188056 0.160865 0.027 0.0485502 0.00459133
threshold=2021985.0000000002 23950.000000000004 95.000000000000014 186.50000000000003 1.0000000180025095e-35 19537.490000000002 149.50000000000003 2126588.5000000005 29050.000000000004 16.500000000000004 345.50000000000006 6101.5000000000009 1.5000000000000002 26.500000000000004 990.50000000000011 47.500000000000007
decision_type=2 2 2 2 2 2 2 2 2 2 2 2 2 2 2 2
left_child=1 2 -1 -4 7 -6 9 8 -2 -7 11 12 15 -14 -15 -9
right_child=4 -3 3 -5 5 6 -8 10 -10 -11 -12 -13 13 14 -16 -17
leaf_value=-0.079679538469741004 0.14591490195626808 -0.19964011204358978 0.11285149835096518 -0.044752517636584499 -0.16404585797932794 -0.0088269394660476005 -0.073916519045894455 0.00051867850531182804 0.010196561890823973 0.10580540518301865 -0.01308677427902771 0.0051432317603585485 0.00063409190475519886 0 0.0028713384145456055 0
leaf_count=37 20 30 26 23 20 28 32 6611 26 25 21 33 225 34 178 79
internal_value=0 -1.12461 -0.213982 0.674279 0.00994579 -0.593823 -0 0.0190799 1.31269 0.800835 0.0102466 0.0112295 0.0106203 0.0307522 0.0439792 0.00906536
internal_count=7448 116 86 49 7332 105 85 7227 46 53 7181 7160 7127 437 212 6690
shrinkage=0.0566408


Tree=106
num_leaves=15
num_cat=0
split_feature=17 4 36 28 27 21 36 40 17 0 16 4 22 35
split_gain=133.86 226.13 67.8054 107.467 35.8532 166.369 76.122 70.9866 2.02296 2.57064 0.412734 0.261855 0.104725 0.0418964
threshold=2021985.0000000002 21900.000000000004 95.000000000000014 186.50000000000003 6346.5600000000004 26605.995000000006 138.50000000000003 348.50000000000006 2126588.5000000005 36.500000000000007 11.200000000000001 30050.000000000004 6101.5000000000009 1.5000000000000002
decision_type=2 2 2 2 2 2 2 2 2 2 2 2 2 2
left_child=1 2 -1 -4 7 -6 -7 8 9 -2 12 -12 13 -10
right_child=4 -3 3 -5 5 6 -8 -9 10 -11 11 -13 -14 -15
leaf_value=-0.06331436095639055 0.025591032359111653 -0.17680341050707882 0.12075901827585848 -0.046659839903141501 -0.14574692670347769 0.065614266574713892 -0.045503890287457466 0.10078759035017273 0.00044372937972545005 -0 9.9350728674480132e-05 0.0069971531816683096 0.0040698404550596617 0.001196789329917008
leaf_count=36 22 35 23 22 28 39 36 21 6593 24 68 55 32 414
internal_value=0 -1.06492 -0.108449 0.677976 0.00941227 -0.570791 0.199839 0.0180354 0.0122404 0.218928 0.0106409 0.0696491 0.00937167 0.00884633
internal_count=7448 116 81 45 7332 103 75 7229 7208 46 7162 123 7039 7007
shrinkage=0.0566408


Tree=107
num_leaves=12
num_cat=0
split_feature=26 35 40 17 22 20 21 44 40 22 1
split_gain=125.003 50.0882 73.7532 71.6961 175.17 117.934 117.426 25.8478 4.62866 0.146819 0.0968131
threshold=23.500000000000004 4.5000000000000009 366.50000000000006 2066850.5000000002 2159.5000000000005 16.500000000000004 29119.460000000003 23.500000000000004 348.50000000000006 6101.5000000000009 1.5000000000000002
decision_type=2 2 2 2 2 2 2 2 2 2 2
left_child=1 2 3 4 -1 6 -6 -5 9 10 -9
right_child=-2 -3 -4 7 5 -7 -8 8 -10 -11 -12
leaf_value=0.051833115733405211 -0.10746114447484768 -0.077148873375133487 0.097864729904215381 0.050180206614317803 -0.24668845589682506 -0.0085335758770375414 -0.046666204177016682 0.00050270113310330869 -0.025447754210885756 0.0046439225583457481 0.0016505335080291307
leaf_count=37 33 25 23 32 21 31 20 6849 20 33 324
internal_value=0 0.00173608 0.0068941 0.000885121 -0.797153 -1.69896 -2.7772 0.0132807 0.00897923 0.0105796 0.0100141
internal_count=7448 7415 7390 7367 109 72 41 7258 7226 7206 7173
shrinkage=0.0566408


Tree=108
num_leaves=12
num_cat=0
split_feature=26 40 35 17 43 41 16 26 17 0 40
split_gain=111.938 47.0995 64.2773 65.9899 127.462 59.1928 30.5925 60.1799 10.3899 5.73615 1.94894
threshold=23.500000000000004 376.50000000000006 3.5000000000000004 2021985.0000000002 11.500000000000002 249.50000000000003 12.500000000000002 3.5000000000000004 2126588.5000000005 34.500000000000007 345.50000000000006
decision_type=2 2 2 2 2 2 2 2 2 2 2
left_child=1 2 3 4 -1 -6 7 8 9 -5 -10
right_child=-2 -3 -4 6 5 -7 -8 -9 10 -11 -12
leaf_value=0.043517366056185773 -0.10169274975144327 -0.077787262887882624 0.077137107085109874 0.048136065447259464 -0.15721560287096156 -0.026402957690636452 0.058814730581066649 -0.078640666308577606 0.00053841274061477431 0.0039245476321255373 -0.016300354975217358
leaf_count=27 33 23 33 21 28 22 27 29 7160 25 20
internal_value=0 0.00158918 0.00641428 0 -0.910082 -1.84151 0.00984898 0.00554779 0.0117052 0.476872 0.00838881
internal_count=7448 7415 7392 7359 77 50 7282 7255 7226 46 7180
shrinkage=0.0566408


Tree=109
num_leaves=12
num_cat=0
split_feature=35 17 40 27 17 2 20 21 16 40 16
split_gain=108.339 96.406 70.6371 54.0099 111.233 204.036 106.529 105.411 24.8486 3.8219 0.272246
threshold=4.5000000000000009 2007207.5000000002 366.50000000000006 108547.71000000002 2066850.5000000002 21900.000000000004 16.500000000000004 28495.390000000003 12.500000000000002 348.50000000000006 11.200000000000001
decision_type=2 2 2 2 2 2 2 2 2 2 2
left_child=1 -1 3 4 5 6 7 -3 9 10 -6
